<?xml version="1.0" encoding="UTF-8" standalone="yes"?>
<PMML xmlns="http://www.dmg.org/PMML-4_3" version="4.3">
	<Header>
		<Application name="JPMML-SkLearn" version="1.3.3"/>
		<Timestamp>2017-05-26T13:18:06Z</Timestamp>
	</Header>
	<MiningBuildTask>
		<Extension>PMMLPipeline(steps=[('catagorical_encoder', DataFrameMapper(default=False, df_out=False,
        features=[('UniqueCarrier', LabelEncoder(), {}), ('Origin', LabelEncoder(), {}), ('Dest', LabelEncoder(), {})],
        input_df=False, sparse=False)),
       ('Classifier', XGBClassifier(base_score=0.5, colsample_bylevel=1, colsample_bytree=1,
       gamma=0, learning_rate=0.1, max_delta_step=0, max_depth=3,
       min_child_weight=1, missing=None, n_estimators=100, nthread=-1,
       objective='binary:logistic', reg_alpha=0, reg_lambda=1,
       scale_pos_weight=1, seed=0, silent=True, subsample=1))])</Extension>
	</MiningBuildTask>
	<DataDictionary>
		<DataField name="IsDepDelayed" optype="categorical" dataType="string">
			<Value value="NO"/>
			<Value value="YES"/>
		</DataField>
		<DataField name="UniqueCarrier" optype="categorical" dataType="string">
			<Value value="AA"/>
			<Value value="CO"/>
			<Value value="DL"/>
			<Value value="HP"/>
			<Value value="PI"/>
			<Value value="PS"/>
			<Value value="TW"/>
			<Value value="UA"/>
			<Value value="US"/>
			<Value value="WN"/>
		</DataField>
		<DataField name="Origin" optype="categorical" dataType="string">
			<Value value="ABE"/>
			<Value value="ABQ"/>
			<Value value="ACY"/>
			<Value value="ALB"/>
			<Value value="AMA"/>
			<Value value="ANC"/>
			<Value value="ATL"/>
			<Value value="AUS"/>
			<Value value="AVP"/>
			<Value value="BDL"/>
			<Value value="BGM"/>
			<Value value="BHM"/>
			<Value value="BIL"/>
			<Value value="BNA"/>
			<Value value="BOI"/>
			<Value value="BOS"/>
			<Value value="BTV"/>
			<Value value="BUF"/>
			<Value value="BUR"/>
			<Value value="BWI"/>
			<Value value="CAE"/>
			<Value value="CHO"/>
			<Value value="CHS"/>
			<Value value="CLE"/>
			<Value value="CLT"/>
			<Value value="CMH"/>
			<Value value="COS"/>
			<Value value="CRP"/>
			<Value value="CRW"/>
			<Value value="CVG"/>
			<Value value="DAL"/>
			<Value value="DAY"/>
			<Value value="DCA"/>
			<Value value="DEN"/>
			<Value value="DFW"/>
			<Value value="DSM"/>
			<Value value="DTW"/>
			<Value value="EGE"/>
			<Value value="ELP"/>
			<Value value="ERI"/>
			<Value value="EWR"/>
			<Value value="EYW"/>
			<Value value="FLL"/>
			<Value value="GEG"/>
			<Value value="GNV"/>
			<Value value="GRR"/>
			<Value value="GSO"/>
			<Value value="HNL"/>
			<Value value="HOU"/>
			<Value value="HPN"/>
			<Value value="HRL"/>
			<Value value="IAD"/>
			<Value value="IAH"/>
			<Value value="ICT"/>
			<Value value="IND"/>
			<Value value="ISP"/>
			<Value value="JAN"/>
			<Value value="JAX"/>
			<Value value="JFK"/>
			<Value value="KOA"/>
			<Value value="LAN"/>
			<Value value="LAS"/>
			<Value value="LAX"/>
			<Value value="LBB"/>
			<Value value="LEX"/>
			<Value value="LGA"/>
			<Value value="LIH"/>
			<Value value="LIT"/>
			<Value value="LYH"/>
			<Value value="MAF"/>
			<Value value="MCI"/>
			<Value value="MCO"/>
			<Value value="MDT"/>
			<Value value="MDW"/>
			<Value value="MEM"/>
			<Value value="MFR"/>
			<Value value="MHT"/>
			<Value value="MIA"/>
			<Value value="MKE"/>
			<Value value="MLB"/>
			<Value value="MRY"/>
			<Value value="MSP"/>
			<Value value="MSY"/>
			<Value value="MYR"/>
			<Value value="OAK"/>
			<Value value="OGG"/>
			<Value value="OKC"/>
			<Value value="OMA"/>
			<Value value="ONT"/>
			<Value value="ORD"/>
			<Value value="ORF"/>
			<Value value="PBI"/>
			<Value value="PDX"/>
			<Value value="PHF"/>
			<Value value="PHL"/>
			<Value value="PHX"/>
			<Value value="PIT"/>
			<Value value="PSP"/>
			<Value value="PVD"/>
			<Value value="PWM"/>
			<Value value="RDU"/>
			<Value value="RIC"/>
			<Value value="RNO"/>
			<Value value="ROA"/>
			<Value value="ROC"/>
			<Value value="RSW"/>
			<Value value="SAN"/>
			<Value value="SAT"/>
			<Value value="SAV"/>
			<Value value="SBN"/>
			<Value value="SCK"/>
			<Value value="SDF"/>
			<Value value="SEA"/>
			<Value value="SFO"/>
			<Value value="SJC"/>
			<Value value="SJU"/>
			<Value value="SLC"/>
			<Value value="SMF"/>
			<Value value="SNA"/>
			<Value value="SRQ"/>
			<Value value="STL"/>
			<Value value="STT"/>
			<Value value="STX"/>
			<Value value="SWF"/>
			<Value value="SYR"/>
			<Value value="TLH"/>
			<Value value="TPA"/>
			<Value value="TRI"/>
			<Value value="TUL"/>
			<Value value="TUS"/>
			<Value value="TYS"/>
			<Value value="UCA"/>
		</DataField>
		<DataField name="Dest" optype="categorical" dataType="string">
			<Value value="ABE"/>
			<Value value="ABQ"/>
			<Value value="ACY"/>
			<Value value="ALB"/>
			<Value value="AMA"/>
			<Value value="ANC"/>
			<Value value="ATL"/>
			<Value value="AUS"/>
			<Value value="AVL"/>
			<Value value="AVP"/>
			<Value value="BDL"/>
			<Value value="BGM"/>
			<Value value="BHM"/>
			<Value value="BNA"/>
			<Value value="BOI"/>
			<Value value="BOS"/>
			<Value value="BTV"/>
			<Value value="BUF"/>
			<Value value="BUR"/>
			<Value value="BWI"/>
			<Value value="CAE"/>
			<Value value="CAK"/>
			<Value value="CHA"/>
			<Value value="CHO"/>
			<Value value="CHS"/>
			<Value value="CLE"/>
			<Value value="CLT"/>
			<Value value="CMH"/>
			<Value value="COS"/>
			<Value value="CRP"/>
			<Value value="CVG"/>
			<Value value="DAL"/>
			<Value value="DAY"/>
			<Value value="DCA"/>
			<Value value="DEN"/>
			<Value value="DFW"/>
			<Value value="DSM"/>
			<Value value="DTW"/>
			<Value value="ELM"/>
			<Value value="ELP"/>
			<Value value="ERI"/>
			<Value value="EUG"/>
			<Value value="EWR"/>
			<Value value="EYW"/>
			<Value value="FAT"/>
			<Value value="FAY"/>
			<Value value="FLL"/>
			<Value value="FNT"/>
			<Value value="GEG"/>
			<Value value="GRR"/>
			<Value value="GSO"/>
			<Value value="GSP"/>
			<Value value="HNL"/>
			<Value value="HOU"/>
			<Value value="HPN"/>
			<Value value="HRL"/>
			<Value value="HTS"/>
			<Value value="IAD"/>
			<Value value="IAH"/>
			<Value value="ICT"/>
			<Value value="ILM"/>
			<Value value="IND"/>
			<Value value="ISP"/>
			<Value value="JAN"/>
			<Value value="JAX"/>
			<Value value="JFK"/>
			<Value value="KOA"/>
			<Value value="LAS"/>
			<Value value="LAX"/>
			<Value value="LBB"/>
			<Value value="LEX"/>
			<Value value="LGA"/>
			<Value value="LIH"/>
			<Value value="LIT"/>
			<Value value="LYH"/>
			<Value value="MAF"/>
			<Value value="MCI"/>
			<Value value="MCO"/>
			<Value value="MDT"/>
			<Value value="MDW"/>
			<Value value="MHT"/>
			<Value value="MIA"/>
			<Value value="MKE"/>
			<Value value="MRY"/>
			<Value value="MSP"/>
			<Value value="MSY"/>
			<Value value="MYR"/>
			<Value value="OAJ"/>
			<Value value="OAK"/>
			<Value value="OGG"/>
			<Value value="OKC"/>
			<Value value="OMA"/>
			<Value value="ONT"/>
			<Value value="ORD"/>
			<Value value="ORF"/>
			<Value value="ORH"/>
			<Value value="PBI"/>
			<Value value="PDX"/>
			<Value value="PHF"/>
			<Value value="PHL"/>
			<Value value="PHX"/>
			<Value value="PIT"/>
			<Value value="PNS"/>
			<Value value="PSP"/>
			<Value value="PVD"/>
			<Value value="PWM"/>
			<Value value="RDU"/>
			<Value value="RIC"/>
			<Value value="RNO"/>
			<Value value="ROA"/>
			<Value value="ROC"/>
			<Value value="RSW"/>
			<Value value="SAN"/>
			<Value value="SAT"/>
			<Value value="SBN"/>
			<Value value="SCK"/>
			<Value value="SDF"/>
			<Value value="SEA"/>
			<Value value="SFO"/>
			<Value value="SJC"/>
			<Value value="SJU"/>
			<Value value="SLC"/>
			<Value value="SMF"/>
			<Value value="SNA"/>
			<Value value="SRQ"/>
			<Value value="STL"/>
			<Value value="STT"/>
			<Value value="SWF"/>
			<Value value="SYR"/>
			<Value value="TOL"/>
			<Value value="TPA"/>
			<Value value="TUL"/>
			<Value value="TUS"/>
			<Value value="UCA"/>
		</DataField>
	</DataDictionary>
	<TransformationDictionary>
		<DerivedField name="label_encoder(UniqueCarrier)" optype="continuous" dataType="integer">
			<MapValues outputColumn="output">
				<FieldColumnPair field="UniqueCarrier" column="input"/>
				<InlineTable>
					<row>
						<input xmlns:ns2="http://www.dmg.org/PMML-4_3" xmlns="">AA</input>
						<output xmlns:ns2="http://www.dmg.org/PMML-4_3" xmlns="">0</output>
					</row>
					<row>
						<input xmlns:ns2="http://www.dmg.org/PMML-4_3" xmlns="">CO</input>
						<output xmlns:ns2="http://www.dmg.org/PMML-4_3" xmlns="">1</output>
					</row>
					<row>
						<input xmlns:ns2="http://www.dmg.org/PMML-4_3" xmlns="">DL</input>
						<output xmlns:ns2="http://www.dmg.org/PMML-4_3" xmlns="">2</output>
					</row>
					<row>
						<input xmlns:ns2="http://www.dmg.org/PMML-4_3" xmlns="">HP</input>
						<output xmlns:ns2="http://www.dmg.org/PMML-4_3" xmlns="">3</output>
					</row>
					<row>
						<input xmlns:ns2="http://www.dmg.org/PMML-4_3" xmlns="">PI</input>
						<output xmlns:ns2="http://www.dmg.org/PMML-4_3" xmlns="">4</output>
					</row>
					<row>
						<input xmlns:ns2="http://www.dmg.org/PMML-4_3" xmlns="">PS</input>
						<output xmlns:ns2="http://www.dmg.org/PMML-4_3" xmlns="">5</output>
					</row>
					<row>
						<input xmlns:ns2="http://www.dmg.org/PMML-4_3" xmlns="">TW</input>
						<output xmlns:ns2="http://www.dmg.org/PMML-4_3" xmlns="">6</output>
					</row>
					<row>
						<input xmlns:ns2="http://www.dmg.org/PMML-4_3" xmlns="">UA</input>
						<output xmlns:ns2="http://www.dmg.org/PMML-4_3" xmlns="">7</output>
					</row>
					<row>
						<input xmlns:ns2="http://www.dmg.org/PMML-4_3" xmlns="">US</input>
						<output xmlns:ns2="http://www.dmg.org/PMML-4_3" xmlns="">8</output>
					</row>
					<row>
						<input xmlns:ns2="http://www.dmg.org/PMML-4_3" xmlns="">WN</input>
						<output xmlns:ns2="http://www.dmg.org/PMML-4_3" xmlns="">9</output>
					</row>
				</InlineTable>
			</MapValues>
		</DerivedField>
		<DerivedField name="label_encoder(Origin)" optype="continuous" dataType="integer">
			<MapValues outputColumn="output">
				<FieldColumnPair field="Origin" column="input"/>
				<InlineTable>
					<row>
						<input xmlns:ns2="http://www.dmg.org/PMML-4_3" xmlns="">ABE</input>
						<output xmlns:ns2="http://www.dmg.org/PMML-4_3" xmlns="">0</output>
					</row>
					<row>
						<input xmlns:ns2="http://www.dmg.org/PMML-4_3" xmlns="">ABQ</input>
						<output xmlns:ns2="http://www.dmg.org/PMML-4_3" xmlns="">1</output>
					</row>
					<row>
						<input xmlns:ns2="http://www.dmg.org/PMML-4_3" xmlns="">ACY</input>
						<output xmlns:ns2="http://www.dmg.org/PMML-4_3" xmlns="">2</output>
					</row>
					<row>
						<input xmlns:ns2="http://www.dmg.org/PMML-4_3" xmlns="">ALB</input>
						<output xmlns:ns2="http://www.dmg.org/PMML-4_3" xmlns="">3</output>
					</row>
					<row>
						<input xmlns:ns2="http://www.dmg.org/PMML-4_3" xmlns="">AMA</input>
						<output xmlns:ns2="http://www.dmg.org/PMML-4_3" xmlns="">4</output>
					</row>
					<row>
						<input xmlns:ns2="http://www.dmg.org/PMML-4_3" xmlns="">ANC</input>
						<output xmlns:ns2="http://www.dmg.org/PMML-4_3" xmlns="">5</output>
					</row>
					<row>
						<input xmlns:ns2="http://www.dmg.org/PMML-4_3" xmlns="">ATL</input>
						<output xmlns:ns2="http://www.dmg.org/PMML-4_3" xmlns="">6</output>
					</row>
					<row>
						<input xmlns:ns2="http://www.dmg.org/PMML-4_3" xmlns="">AUS</input>
						<output xmlns:ns2="http://www.dmg.org/PMML-4_3" xmlns="">7</output>
					</row>
					<row>
						<input xmlns:ns2="http://www.dmg.org/PMML-4_3" xmlns="">AVP</input>
						<output xmlns:ns2="http://www.dmg.org/PMML-4_3" xmlns="">8</output>
					</row>
					<row>
						<input xmlns:ns2="http://www.dmg.org/PMML-4_3" xmlns="">BDL</input>
						<output xmlns:ns2="http://www.dmg.org/PMML-4_3" xmlns="">9</output>
					</row>
					<row>
						<input xmlns:ns2="http://www.dmg.org/PMML-4_3" xmlns="">BGM</input>
						<output xmlns:ns2="http://www.dmg.org/PMML-4_3" xmlns="">10</output>
					</row>
					<row>
						<input xmlns:ns2="http://www.dmg.org/PMML-4_3" xmlns="">BHM</input>
						<output xmlns:ns2="http://www.dmg.org/PMML-4_3" xmlns="">11</output>
					</row>
					<row>
						<input xmlns:ns2="http://www.dmg.org/PMML-4_3" xmlns="">BIL</input>
						<output xmlns:ns2="http://www.dmg.org/PMML-4_3" xmlns="">12</output>
					</row>
					<row>
						<input xmlns:ns2="http://www.dmg.org/PMML-4_3" xmlns="">BNA</input>
						<output xmlns:ns2="http://www.dmg.org/PMML-4_3" xmlns="">13</output>
					</row>
					<row>
						<input xmlns:ns2="http://www.dmg.org/PMML-4_3" xmlns="">BOI</input>
						<output xmlns:ns2="http://www.dmg.org/PMML-4_3" xmlns="">14</output>
					</row>
					<row>
						<input xmlns:ns2="http://www.dmg.org/PMML-4_3" xmlns="">BOS</input>
						<output xmlns:ns2="http://www.dmg.org/PMML-4_3" xmlns="">15</output>
					</row>
					<row>
						<input xmlns:ns2="http://www.dmg.org/PMML-4_3" xmlns="">BTV</input>
						<output xmlns:ns2="http://www.dmg.org/PMML-4_3" xmlns="">16</output>
					</row>
					<row>
						<input xmlns:ns2="http://www.dmg.org/PMML-4_3" xmlns="">BUF</input>
						<output xmlns:ns2="http://www.dmg.org/PMML-4_3" xmlns="">17</output>
					</row>
					<row>
						<input xmlns:ns2="http://www.dmg.org/PMML-4_3" xmlns="">BUR</input>
						<output xmlns:ns2="http://www.dmg.org/PMML-4_3" xmlns="">18</output>
					</row>
					<row>
						<input xmlns:ns2="http://www.dmg.org/PMML-4_3" xmlns="">BWI</input>
						<output xmlns:ns2="http://www.dmg.org/PMML-4_3" xmlns="">19</output>
					</row>
					<row>
						<input xmlns:ns2="http://www.dmg.org/PMML-4_3" xmlns="">CAE</input>
						<output xmlns:ns2="http://www.dmg.org/PMML-4_3" xmlns="">20</output>
					</row>
					<row>
						<input xmlns:ns2="http://www.dmg.org/PMML-4_3" xmlns="">CHO</input>
						<output xmlns:ns2="http://www.dmg.org/PMML-4_3" xmlns="">21</output>
					</row>
					<row>
						<input xmlns:ns2="http://www.dmg.org/PMML-4_3" xmlns="">CHS</input>
						<output xmlns:ns2="http://www.dmg.org/PMML-4_3" xmlns="">22</output>
					</row>
					<row>
						<input xmlns:ns2="http://www.dmg.org/PMML-4_3" xmlns="">CLE</input>
						<output xmlns:ns2="http://www.dmg.org/PMML-4_3" xmlns="">23</output>
					</row>
					<row>
						<input xmlns:ns2="http://www.dmg.org/PMML-4_3" xmlns="">CLT</input>
						<output xmlns:ns2="http://www.dmg.org/PMML-4_3" xmlns="">24</output>
					</row>
					<row>
						<input xmlns:ns2="http://www.dmg.org/PMML-4_3" xmlns="">CMH</input>
						<output xmlns:ns2="http://www.dmg.org/PMML-4_3" xmlns="">25</output>
					</row>
					<row>
						<input xmlns:ns2="http://www.dmg.org/PMML-4_3" xmlns="">COS</input>
						<output xmlns:ns2="http://www.dmg.org/PMML-4_3" xmlns="">26</output>
					</row>
					<row>
						<input xmlns:ns2="http://www.dmg.org/PMML-4_3" xmlns="">CRP</input>
						<output xmlns:ns2="http://www.dmg.org/PMML-4_3" xmlns="">27</output>
					</row>
					<row>
						<input xmlns:ns2="http://www.dmg.org/PMML-4_3" xmlns="">CRW</input>
						<output xmlns:ns2="http://www.dmg.org/PMML-4_3" xmlns="">28</output>
					</row>
					<row>
						<input xmlns:ns2="http://www.dmg.org/PMML-4_3" xmlns="">CVG</input>
						<output xmlns:ns2="http://www.dmg.org/PMML-4_3" xmlns="">29</output>
					</row>
					<row>
						<input xmlns:ns2="http://www.dmg.org/PMML-4_3" xmlns="">DAL</input>
						<output xmlns:ns2="http://www.dmg.org/PMML-4_3" xmlns="">30</output>
					</row>
					<row>
						<input xmlns:ns2="http://www.dmg.org/PMML-4_3" xmlns="">DAY</input>
						<output xmlns:ns2="http://www.dmg.org/PMML-4_3" xmlns="">31</output>
					</row>
					<row>
						<input xmlns:ns2="http://www.dmg.org/PMML-4_3" xmlns="">DCA</input>
						<output xmlns:ns2="http://www.dmg.org/PMML-4_3" xmlns="">32</output>
					</row>
					<row>
						<input xmlns:ns2="http://www.dmg.org/PMML-4_3" xmlns="">DEN</input>
						<output xmlns:ns2="http://www.dmg.org/PMML-4_3" xmlns="">33</output>
					</row>
					<row>
						<input xmlns:ns2="http://www.dmg.org/PMML-4_3" xmlns="">DFW</input>
						<output xmlns:ns2="http://www.dmg.org/PMML-4_3" xmlns="">34</output>
					</row>
					<row>
						<input xmlns:ns2="http://www.dmg.org/PMML-4_3" xmlns="">DSM</input>
						<output xmlns:ns2="http://www.dmg.org/PMML-4_3" xmlns="">35</output>
					</row>
					<row>
						<input xmlns:ns2="http://www.dmg.org/PMML-4_3" xmlns="">DTW</input>
						<output xmlns:ns2="http://www.dmg.org/PMML-4_3" xmlns="">36</output>
					</row>
					<row>
						<input xmlns:ns2="http://www.dmg.org/PMML-4_3" xmlns="">EGE</input>
						<output xmlns:ns2="http://www.dmg.org/PMML-4_3" xmlns="">37</output>
					</row>
					<row>
						<input xmlns:ns2="http://www.dmg.org/PMML-4_3" xmlns="">ELP</input>
						<output xmlns:ns2="http://www.dmg.org/PMML-4_3" xmlns="">38</output>
					</row>
					<row>
						<input xmlns:ns2="http://www.dmg.org/PMML-4_3" xmlns="">ERI</input>
						<output xmlns:ns2="http://www.dmg.org/PMML-4_3" xmlns="">39</output>
					</row>
					<row>
						<input xmlns:ns2="http://www.dmg.org/PMML-4_3" xmlns="">EWR</input>
						<output xmlns:ns2="http://www.dmg.org/PMML-4_3" xmlns="">40</output>
					</row>
					<row>
						<input xmlns:ns2="http://www.dmg.org/PMML-4_3" xmlns="">EYW</input>
						<output xmlns:ns2="http://www.dmg.org/PMML-4_3" xmlns="">41</output>
					</row>
					<row>
						<input xmlns:ns2="http://www.dmg.org/PMML-4_3" xmlns="">FLL</input>
						<output xmlns:ns2="http://www.dmg.org/PMML-4_3" xmlns="">42</output>
					</row>
					<row>
						<input xmlns:ns2="http://www.dmg.org/PMML-4_3" xmlns="">GEG</input>
						<output xmlns:ns2="http://www.dmg.org/PMML-4_3" xmlns="">43</output>
					</row>
					<row>
						<input xmlns:ns2="http://www.dmg.org/PMML-4_3" xmlns="">GNV</input>
						<output xmlns:ns2="http://www.dmg.org/PMML-4_3" xmlns="">44</output>
					</row>
					<row>
						<input xmlns:ns2="http://www.dmg.org/PMML-4_3" xmlns="">GRR</input>
						<output xmlns:ns2="http://www.dmg.org/PMML-4_3" xmlns="">45</output>
					</row>
					<row>
						<input xmlns:ns2="http://www.dmg.org/PMML-4_3" xmlns="">GSO</input>
						<output xmlns:ns2="http://www.dmg.org/PMML-4_3" xmlns="">46</output>
					</row>
					<row>
						<input xmlns:ns2="http://www.dmg.org/PMML-4_3" xmlns="">HNL</input>
						<output xmlns:ns2="http://www.dmg.org/PMML-4_3" xmlns="">47</output>
					</row>
					<row>
						<input xmlns:ns2="http://www.dmg.org/PMML-4_3" xmlns="">HOU</input>
						<output xmlns:ns2="http://www.dmg.org/PMML-4_3" xmlns="">48</output>
					</row>
					<row>
						<input xmlns:ns2="http://www.dmg.org/PMML-4_3" xmlns="">HPN</input>
						<output xmlns:ns2="http://www.dmg.org/PMML-4_3" xmlns="">49</output>
					</row>
					<row>
						<input xmlns:ns2="http://www.dmg.org/PMML-4_3" xmlns="">HRL</input>
						<output xmlns:ns2="http://www.dmg.org/PMML-4_3" xmlns="">50</output>
					</row>
					<row>
						<input xmlns:ns2="http://www.dmg.org/PMML-4_3" xmlns="">IAD</input>
						<output xmlns:ns2="http://www.dmg.org/PMML-4_3" xmlns="">51</output>
					</row>
					<row>
						<input xmlns:ns2="http://www.dmg.org/PMML-4_3" xmlns="">IAH</input>
						<output xmlns:ns2="http://www.dmg.org/PMML-4_3" xmlns="">52</output>
					</row>
					<row>
						<input xmlns:ns2="http://www.dmg.org/PMML-4_3" xmlns="">ICT</input>
						<output xmlns:ns2="http://www.dmg.org/PMML-4_3" xmlns="">53</output>
					</row>
					<row>
						<input xmlns:ns2="http://www.dmg.org/PMML-4_3" xmlns="">IND</input>
						<output xmlns:ns2="http://www.dmg.org/PMML-4_3" xmlns="">54</output>
					</row>
					<row>
						<input xmlns:ns2="http://www.dmg.org/PMML-4_3" xmlns="">ISP</input>
						<output xmlns:ns2="http://www.dmg.org/PMML-4_3" xmlns="">55</output>
					</row>
					<row>
						<input xmlns:ns2="http://www.dmg.org/PMML-4_3" xmlns="">JAN</input>
						<output xmlns:ns2="http://www.dmg.org/PMML-4_3" xmlns="">56</output>
					</row>
					<row>
						<input xmlns:ns2="http://www.dmg.org/PMML-4_3" xmlns="">JAX</input>
						<output xmlns:ns2="http://www.dmg.org/PMML-4_3" xmlns="">57</output>
					</row>
					<row>
						<input xmlns:ns2="http://www.dmg.org/PMML-4_3" xmlns="">JFK</input>
						<output xmlns:ns2="http://www.dmg.org/PMML-4_3" xmlns="">58</output>
					</row>
					<row>
						<input xmlns:ns2="http://www.dmg.org/PMML-4_3" xmlns="">KOA</input>
						<output xmlns:ns2="http://www.dmg.org/PMML-4_3" xmlns="">59</output>
					</row>
					<row>
						<input xmlns:ns2="http://www.dmg.org/PMML-4_3" xmlns="">LAN</input>
						<output xmlns:ns2="http://www.dmg.org/PMML-4_3" xmlns="">60</output>
					</row>
					<row>
						<input xmlns:ns2="http://www.dmg.org/PMML-4_3" xmlns="">LAS</input>
						<output xmlns:ns2="http://www.dmg.org/PMML-4_3" xmlns="">61</output>
					</row>
					<row>
						<input xmlns:ns2="http://www.dmg.org/PMML-4_3" xmlns="">LAX</input>
						<output xmlns:ns2="http://www.dmg.org/PMML-4_3" xmlns="">62</output>
					</row>
					<row>
						<input xmlns:ns2="http://www.dmg.org/PMML-4_3" xmlns="">LBB</input>
						<output xmlns:ns2="http://www.dmg.org/PMML-4_3" xmlns="">63</output>
					</row>
					<row>
						<input xmlns:ns2="http://www.dmg.org/PMML-4_3" xmlns="">LEX</input>
						<output xmlns:ns2="http://www.dmg.org/PMML-4_3" xmlns="">64</output>
					</row>
					<row>
						<input xmlns:ns2="http://www.dmg.org/PMML-4_3" xmlns="">LGA</input>
						<output xmlns:ns2="http://www.dmg.org/PMML-4_3" xmlns="">65</output>
					</row>
					<row>
						<input xmlns:ns2="http://www.dmg.org/PMML-4_3" xmlns="">LIH</input>
						<output xmlns:ns2="http://www.dmg.org/PMML-4_3" xmlns="">66</output>
					</row>
					<row>
						<input xmlns:ns2="http://www.dmg.org/PMML-4_3" xmlns="">LIT</input>
						<output xmlns:ns2="http://www.dmg.org/PMML-4_3" xmlns="">67</output>
					</row>
					<row>
						<input xmlns:ns2="http://www.dmg.org/PMML-4_3" xmlns="">LYH</input>
						<output xmlns:ns2="http://www.dmg.org/PMML-4_3" xmlns="">68</output>
					</row>
					<row>
						<input xmlns:ns2="http://www.dmg.org/PMML-4_3" xmlns="">MAF</input>
						<output xmlns:ns2="http://www.dmg.org/PMML-4_3" xmlns="">69</output>
					</row>
					<row>
						<input xmlns:ns2="http://www.dmg.org/PMML-4_3" xmlns="">MCI</input>
						<output xmlns:ns2="http://www.dmg.org/PMML-4_3" xmlns="">70</output>
					</row>
					<row>
						<input xmlns:ns2="http://www.dmg.org/PMML-4_3" xmlns="">MCO</input>
						<output xmlns:ns2="http://www.dmg.org/PMML-4_3" xmlns="">71</output>
					</row>
					<row>
						<input xmlns:ns2="http://www.dmg.org/PMML-4_3" xmlns="">MDT</input>
						<output xmlns:ns2="http://www.dmg.org/PMML-4_3" xmlns="">72</output>
					</row>
					<row>
						<input xmlns:ns2="http://www.dmg.org/PMML-4_3" xmlns="">MDW</input>
						<output xmlns:ns2="http://www.dmg.org/PMML-4_3" xmlns="">73</output>
					</row>
					<row>
						<input xmlns:ns2="http://www.dmg.org/PMML-4_3" xmlns="">MEM</input>
						<output xmlns:ns2="http://www.dmg.org/PMML-4_3" xmlns="">74</output>
					</row>
					<row>
						<input xmlns:ns2="http://www.dmg.org/PMML-4_3" xmlns="">MFR</input>
						<output xmlns:ns2="http://www.dmg.org/PMML-4_3" xmlns="">75</output>
					</row>
					<row>
						<input xmlns:ns2="http://www.dmg.org/PMML-4_3" xmlns="">MHT</input>
						<output xmlns:ns2="http://www.dmg.org/PMML-4_3" xmlns="">76</output>
					</row>
					<row>
						<input xmlns:ns2="http://www.dmg.org/PMML-4_3" xmlns="">MIA</input>
						<output xmlns:ns2="http://www.dmg.org/PMML-4_3" xmlns="">77</output>
					</row>
					<row>
						<input xmlns:ns2="http://www.dmg.org/PMML-4_3" xmlns="">MKE</input>
						<output xmlns:ns2="http://www.dmg.org/PMML-4_3" xmlns="">78</output>
					</row>
					<row>
						<input xmlns:ns2="http://www.dmg.org/PMML-4_3" xmlns="">MLB</input>
						<output xmlns:ns2="http://www.dmg.org/PMML-4_3" xmlns="">79</output>
					</row>
					<row>
						<input xmlns:ns2="http://www.dmg.org/PMML-4_3" xmlns="">MRY</input>
						<output xmlns:ns2="http://www.dmg.org/PMML-4_3" xmlns="">80</output>
					</row>
					<row>
						<input xmlns:ns2="http://www.dmg.org/PMML-4_3" xmlns="">MSP</input>
						<output xmlns:ns2="http://www.dmg.org/PMML-4_3" xmlns="">81</output>
					</row>
					<row>
						<input xmlns:ns2="http://www.dmg.org/PMML-4_3" xmlns="">MSY</input>
						<output xmlns:ns2="http://www.dmg.org/PMML-4_3" xmlns="">82</output>
					</row>
					<row>
						<input xmlns:ns2="http://www.dmg.org/PMML-4_3" xmlns="">MYR</input>
						<output xmlns:ns2="http://www.dmg.org/PMML-4_3" xmlns="">83</output>
					</row>
					<row>
						<input xmlns:ns2="http://www.dmg.org/PMML-4_3" xmlns="">OAK</input>
						<output xmlns:ns2="http://www.dmg.org/PMML-4_3" xmlns="">84</output>
					</row>
					<row>
						<input xmlns:ns2="http://www.dmg.org/PMML-4_3" xmlns="">OGG</input>
						<output xmlns:ns2="http://www.dmg.org/PMML-4_3" xmlns="">85</output>
					</row>
					<row>
						<input xmlns:ns2="http://www.dmg.org/PMML-4_3" xmlns="">OKC</input>
						<output xmlns:ns2="http://www.dmg.org/PMML-4_3" xmlns="">86</output>
					</row>
					<row>
						<input xmlns:ns2="http://www.dmg.org/PMML-4_3" xmlns="">OMA</input>
						<output xmlns:ns2="http://www.dmg.org/PMML-4_3" xmlns="">87</output>
					</row>
					<row>
						<input xmlns:ns2="http://www.dmg.org/PMML-4_3" xmlns="">ONT</input>
						<output xmlns:ns2="http://www.dmg.org/PMML-4_3" xmlns="">88</output>
					</row>
					<row>
						<input xmlns:ns2="http://www.dmg.org/PMML-4_3" xmlns="">ORD</input>
						<output xmlns:ns2="http://www.dmg.org/PMML-4_3" xmlns="">89</output>
					</row>
					<row>
						<input xmlns:ns2="http://www.dmg.org/PMML-4_3" xmlns="">ORF</input>
						<output xmlns:ns2="http://www.dmg.org/PMML-4_3" xmlns="">90</output>
					</row>
					<row>
						<input xmlns:ns2="http://www.dmg.org/PMML-4_3" xmlns="">PBI</input>
						<output xmlns:ns2="http://www.dmg.org/PMML-4_3" xmlns="">91</output>
					</row>
					<row>
						<input xmlns:ns2="http://www.dmg.org/PMML-4_3" xmlns="">PDX</input>
						<output xmlns:ns2="http://www.dmg.org/PMML-4_3" xmlns="">92</output>
					</row>
					<row>
						<input xmlns:ns2="http://www.dmg.org/PMML-4_3" xmlns="">PHF</input>
						<output xmlns:ns2="http://www.dmg.org/PMML-4_3" xmlns="">93</output>
					</row>
					<row>
						<input xmlns:ns2="http://www.dmg.org/PMML-4_3" xmlns="">PHL</input>
						<output xmlns:ns2="http://www.dmg.org/PMML-4_3" xmlns="">94</output>
					</row>
					<row>
						<input xmlns:ns2="http://www.dmg.org/PMML-4_3" xmlns="">PHX</input>
						<output xmlns:ns2="http://www.dmg.org/PMML-4_3" xmlns="">95</output>
					</row>
					<row>
						<input xmlns:ns2="http://www.dmg.org/PMML-4_3" xmlns="">PIT</input>
						<output xmlns:ns2="http://www.dmg.org/PMML-4_3" xmlns="">96</output>
					</row>
					<row>
						<input xmlns:ns2="http://www.dmg.org/PMML-4_3" xmlns="">PSP</input>
						<output xmlns:ns2="http://www.dmg.org/PMML-4_3" xmlns="">97</output>
					</row>
					<row>
						<input xmlns:ns2="http://www.dmg.org/PMML-4_3" xmlns="">PVD</input>
						<output xmlns:ns2="http://www.dmg.org/PMML-4_3" xmlns="">98</output>
					</row>
					<row>
						<input xmlns:ns2="http://www.dmg.org/PMML-4_3" xmlns="">PWM</input>
						<output xmlns:ns2="http://www.dmg.org/PMML-4_3" xmlns="">99</output>
					</row>
					<row>
						<input xmlns:ns2="http://www.dmg.org/PMML-4_3" xmlns="">RDU</input>
						<output xmlns:ns2="http://www.dmg.org/PMML-4_3" xmlns="">100</output>
					</row>
					<row>
						<input xmlns:ns2="http://www.dmg.org/PMML-4_3" xmlns="">RIC</input>
						<output xmlns:ns2="http://www.dmg.org/PMML-4_3" xmlns="">101</output>
					</row>
					<row>
						<input xmlns:ns2="http://www.dmg.org/PMML-4_3" xmlns="">RNO</input>
						<output xmlns:ns2="http://www.dmg.org/PMML-4_3" xmlns="">102</output>
					</row>
					<row>
						<input xmlns:ns2="http://www.dmg.org/PMML-4_3" xmlns="">ROA</input>
						<output xmlns:ns2="http://www.dmg.org/PMML-4_3" xmlns="">103</output>
					</row>
					<row>
						<input xmlns:ns2="http://www.dmg.org/PMML-4_3" xmlns="">ROC</input>
						<output xmlns:ns2="http://www.dmg.org/PMML-4_3" xmlns="">104</output>
					</row>
					<row>
						<input xmlns:ns2="http://www.dmg.org/PMML-4_3" xmlns="">RSW</input>
						<output xmlns:ns2="http://www.dmg.org/PMML-4_3" xmlns="">105</output>
					</row>
					<row>
						<input xmlns:ns2="http://www.dmg.org/PMML-4_3" xmlns="">SAN</input>
						<output xmlns:ns2="http://www.dmg.org/PMML-4_3" xmlns="">106</output>
					</row>
					<row>
						<input xmlns:ns2="http://www.dmg.org/PMML-4_3" xmlns="">SAT</input>
						<output xmlns:ns2="http://www.dmg.org/PMML-4_3" xmlns="">107</output>
					</row>
					<row>
						<input xmlns:ns2="http://www.dmg.org/PMML-4_3" xmlns="">SAV</input>
						<output xmlns:ns2="http://www.dmg.org/PMML-4_3" xmlns="">108</output>
					</row>
					<row>
						<input xmlns:ns2="http://www.dmg.org/PMML-4_3" xmlns="">SBN</input>
						<output xmlns:ns2="http://www.dmg.org/PMML-4_3" xmlns="">109</output>
					</row>
					<row>
						<input xmlns:ns2="http://www.dmg.org/PMML-4_3" xmlns="">SCK</input>
						<output xmlns:ns2="http://www.dmg.org/PMML-4_3" xmlns="">110</output>
					</row>
					<row>
						<input xmlns:ns2="http://www.dmg.org/PMML-4_3" xmlns="">SDF</input>
						<output xmlns:ns2="http://www.dmg.org/PMML-4_3" xmlns="">111</output>
					</row>
					<row>
						<input xmlns:ns2="http://www.dmg.org/PMML-4_3" xmlns="">SEA</input>
						<output xmlns:ns2="http://www.dmg.org/PMML-4_3" xmlns="">112</output>
					</row>
					<row>
						<input xmlns:ns2="http://www.dmg.org/PMML-4_3" xmlns="">SFO</input>
						<output xmlns:ns2="http://www.dmg.org/PMML-4_3" xmlns="">113</output>
					</row>
					<row>
						<input xmlns:ns2="http://www.dmg.org/PMML-4_3" xmlns="">SJC</input>
						<output xmlns:ns2="http://www.dmg.org/PMML-4_3" xmlns="">114</output>
					</row>
					<row>
						<input xmlns:ns2="http://www.dmg.org/PMML-4_3" xmlns="">SJU</input>
						<output xmlns:ns2="http://www.dmg.org/PMML-4_3" xmlns="">115</output>
					</row>
					<row>
						<input xmlns:ns2="http://www.dmg.org/PMML-4_3" xmlns="">SLC</input>
						<output xmlns:ns2="http://www.dmg.org/PMML-4_3" xmlns="">116</output>
					</row>
					<row>
						<input xmlns:ns2="http://www.dmg.org/PMML-4_3" xmlns="">SMF</input>
						<output xmlns:ns2="http://www.dmg.org/PMML-4_3" xmlns="">117</output>
					</row>
					<row>
						<input xmlns:ns2="http://www.dmg.org/PMML-4_3" xmlns="">SNA</input>
						<output xmlns:ns2="http://www.dmg.org/PMML-4_3" xmlns="">118</output>
					</row>
					<row>
						<input xmlns:ns2="http://www.dmg.org/PMML-4_3" xmlns="">SRQ</input>
						<output xmlns:ns2="http://www.dmg.org/PMML-4_3" xmlns="">119</output>
					</row>
					<row>
						<input xmlns:ns2="http://www.dmg.org/PMML-4_3" xmlns="">STL</input>
						<output xmlns:ns2="http://www.dmg.org/PMML-4_3" xmlns="">120</output>
					</row>
					<row>
						<input xmlns:ns2="http://www.dmg.org/PMML-4_3" xmlns="">STT</input>
						<output xmlns:ns2="http://www.dmg.org/PMML-4_3" xmlns="">121</output>
					</row>
					<row>
						<input xmlns:ns2="http://www.dmg.org/PMML-4_3" xmlns="">STX</input>
						<output xmlns:ns2="http://www.dmg.org/PMML-4_3" xmlns="">122</output>
					</row>
					<row>
						<input xmlns:ns2="http://www.dmg.org/PMML-4_3" xmlns="">SWF</input>
						<output xmlns:ns2="http://www.dmg.org/PMML-4_3" xmlns="">123</output>
					</row>
					<row>
						<input xmlns:ns2="http://www.dmg.org/PMML-4_3" xmlns="">SYR</input>
						<output xmlns:ns2="http://www.dmg.org/PMML-4_3" xmlns="">124</output>
					</row>
					<row>
						<input xmlns:ns2="http://www.dmg.org/PMML-4_3" xmlns="">TLH</input>
						<output xmlns:ns2="http://www.dmg.org/PMML-4_3" xmlns="">125</output>
					</row>
					<row>
						<input xmlns:ns2="http://www.dmg.org/PMML-4_3" xmlns="">TPA</input>
						<output xmlns:ns2="http://www.dmg.org/PMML-4_3" xmlns="">126</output>
					</row>
					<row>
						<input xmlns:ns2="http://www.dmg.org/PMML-4_3" xmlns="">TRI</input>
						<output xmlns:ns2="http://www.dmg.org/PMML-4_3" xmlns="">127</output>
					</row>
					<row>
						<input xmlns:ns2="http://www.dmg.org/PMML-4_3" xmlns="">TUL</input>
						<output xmlns:ns2="http://www.dmg.org/PMML-4_3" xmlns="">128</output>
					</row>
					<row>
						<input xmlns:ns2="http://www.dmg.org/PMML-4_3" xmlns="">TUS</input>
						<output xmlns:ns2="http://www.dmg.org/PMML-4_3" xmlns="">129</output>
					</row>
					<row>
						<input xmlns:ns2="http://www.dmg.org/PMML-4_3" xmlns="">TYS</input>
						<output xmlns:ns2="http://www.dmg.org/PMML-4_3" xmlns="">130</output>
					</row>
					<row>
						<input xmlns:ns2="http://www.dmg.org/PMML-4_3" xmlns="">UCA</input>
						<output xmlns:ns2="http://www.dmg.org/PMML-4_3" xmlns="">131</output>
					</row>
				</InlineTable>
			</MapValues>
		</DerivedField>
		<DerivedField name="label_encoder(Dest)" optype="continuous" dataType="integer">
			<MapValues outputColumn="output">
				<FieldColumnPair field="Dest" column="input"/>
				<InlineTable>
					<row>
						<input xmlns:ns2="http://www.dmg.org/PMML-4_3" xmlns="">ABE</input>
						<output xmlns:ns2="http://www.dmg.org/PMML-4_3" xmlns="">0</output>
					</row>
					<row>
						<input xmlns:ns2="http://www.dmg.org/PMML-4_3" xmlns="">ABQ</input>
						<output xmlns:ns2="http://www.dmg.org/PMML-4_3" xmlns="">1</output>
					</row>
					<row>
						<input xmlns:ns2="http://www.dmg.org/PMML-4_3" xmlns="">ACY</input>
						<output xmlns:ns2="http://www.dmg.org/PMML-4_3" xmlns="">2</output>
					</row>
					<row>
						<input xmlns:ns2="http://www.dmg.org/PMML-4_3" xmlns="">ALB</input>
						<output xmlns:ns2="http://www.dmg.org/PMML-4_3" xmlns="">3</output>
					</row>
					<row>
						<input xmlns:ns2="http://www.dmg.org/PMML-4_3" xmlns="">AMA</input>
						<output xmlns:ns2="http://www.dmg.org/PMML-4_3" xmlns="">4</output>
					</row>
					<row>
						<input xmlns:ns2="http://www.dmg.org/PMML-4_3" xmlns="">ANC</input>
						<output xmlns:ns2="http://www.dmg.org/PMML-4_3" xmlns="">5</output>
					</row>
					<row>
						<input xmlns:ns2="http://www.dmg.org/PMML-4_3" xmlns="">ATL</input>
						<output xmlns:ns2="http://www.dmg.org/PMML-4_3" xmlns="">6</output>
					</row>
					<row>
						<input xmlns:ns2="http://www.dmg.org/PMML-4_3" xmlns="">AUS</input>
						<output xmlns:ns2="http://www.dmg.org/PMML-4_3" xmlns="">7</output>
					</row>
					<row>
						<input xmlns:ns2="http://www.dmg.org/PMML-4_3" xmlns="">AVL</input>
						<output xmlns:ns2="http://www.dmg.org/PMML-4_3" xmlns="">8</output>
					</row>
					<row>
						<input xmlns:ns2="http://www.dmg.org/PMML-4_3" xmlns="">AVP</input>
						<output xmlns:ns2="http://www.dmg.org/PMML-4_3" xmlns="">9</output>
					</row>
					<row>
						<input xmlns:ns2="http://www.dmg.org/PMML-4_3" xmlns="">BDL</input>
						<output xmlns:ns2="http://www.dmg.org/PMML-4_3" xmlns="">10</output>
					</row>
					<row>
						<input xmlns:ns2="http://www.dmg.org/PMML-4_3" xmlns="">BGM</input>
						<output xmlns:ns2="http://www.dmg.org/PMML-4_3" xmlns="">11</output>
					</row>
					<row>
						<input xmlns:ns2="http://www.dmg.org/PMML-4_3" xmlns="">BHM</input>
						<output xmlns:ns2="http://www.dmg.org/PMML-4_3" xmlns="">12</output>
					</row>
					<row>
						<input xmlns:ns2="http://www.dmg.org/PMML-4_3" xmlns="">BNA</input>
						<output xmlns:ns2="http://www.dmg.org/PMML-4_3" xmlns="">13</output>
					</row>
					<row>
						<input xmlns:ns2="http://www.dmg.org/PMML-4_3" xmlns="">BOI</input>
						<output xmlns:ns2="http://www.dmg.org/PMML-4_3" xmlns="">14</output>
					</row>
					<row>
						<input xmlns:ns2="http://www.dmg.org/PMML-4_3" xmlns="">BOS</input>
						<output xmlns:ns2="http://www.dmg.org/PMML-4_3" xmlns="">15</output>
					</row>
					<row>
						<input xmlns:ns2="http://www.dmg.org/PMML-4_3" xmlns="">BTV</input>
						<output xmlns:ns2="http://www.dmg.org/PMML-4_3" xmlns="">16</output>
					</row>
					<row>
						<input xmlns:ns2="http://www.dmg.org/PMML-4_3" xmlns="">BUF</input>
						<output xmlns:ns2="http://www.dmg.org/PMML-4_3" xmlns="">17</output>
					</row>
					<row>
						<input xmlns:ns2="http://www.dmg.org/PMML-4_3" xmlns="">BUR</input>
						<output xmlns:ns2="http://www.dmg.org/PMML-4_3" xmlns="">18</output>
					</row>
					<row>
						<input xmlns:ns2="http://www.dmg.org/PMML-4_3" xmlns="">BWI</input>
						<output xmlns:ns2="http://www.dmg.org/PMML-4_3" xmlns="">19</output>
					</row>
					<row>
						<input xmlns:ns2="http://www.dmg.org/PMML-4_3" xmlns="">CAE</input>
						<output xmlns:ns2="http://www.dmg.org/PMML-4_3" xmlns="">20</output>
					</row>
					<row>
						<input xmlns:ns2="http://www.dmg.org/PMML-4_3" xmlns="">CAK</input>
						<output xmlns:ns2="http://www.dmg.org/PMML-4_3" xmlns="">21</output>
					</row>
					<row>
						<input xmlns:ns2="http://www.dmg.org/PMML-4_3" xmlns="">CHA</input>
						<output xmlns:ns2="http://www.dmg.org/PMML-4_3" xmlns="">22</output>
					</row>
					<row>
						<input xmlns:ns2="http://www.dmg.org/PMML-4_3" xmlns="">CHO</input>
						<output xmlns:ns2="http://www.dmg.org/PMML-4_3" xmlns="">23</output>
					</row>
					<row>
						<input xmlns:ns2="http://www.dmg.org/PMML-4_3" xmlns="">CHS</input>
						<output xmlns:ns2="http://www.dmg.org/PMML-4_3" xmlns="">24</output>
					</row>
					<row>
						<input xmlns:ns2="http://www.dmg.org/PMML-4_3" xmlns="">CLE</input>
						<output xmlns:ns2="http://www.dmg.org/PMML-4_3" xmlns="">25</output>
					</row>
					<row>
						<input xmlns:ns2="http://www.dmg.org/PMML-4_3" xmlns="">CLT</input>
						<output xmlns:ns2="http://www.dmg.org/PMML-4_3" xmlns="">26</output>
					</row>
					<row>
						<input xmlns:ns2="http://www.dmg.org/PMML-4_3" xmlns="">CMH</input>
						<output xmlns:ns2="http://www.dmg.org/PMML-4_3" xmlns="">27</output>
					</row>
					<row>
						<input xmlns:ns2="http://www.dmg.org/PMML-4_3" xmlns="">COS</input>
						<output xmlns:ns2="http://www.dmg.org/PMML-4_3" xmlns="">28</output>
					</row>
					<row>
						<input xmlns:ns2="http://www.dmg.org/PMML-4_3" xmlns="">CRP</input>
						<output xmlns:ns2="http://www.dmg.org/PMML-4_3" xmlns="">29</output>
					</row>
					<row>
						<input xmlns:ns2="http://www.dmg.org/PMML-4_3" xmlns="">CVG</input>
						<output xmlns:ns2="http://www.dmg.org/PMML-4_3" xmlns="">30</output>
					</row>
					<row>
						<input xmlns:ns2="http://www.dmg.org/PMML-4_3" xmlns="">DAL</input>
						<output xmlns:ns2="http://www.dmg.org/PMML-4_3" xmlns="">31</output>
					</row>
					<row>
						<input xmlns:ns2="http://www.dmg.org/PMML-4_3" xmlns="">DAY</input>
						<output xmlns:ns2="http://www.dmg.org/PMML-4_3" xmlns="">32</output>
					</row>
					<row>
						<input xmlns:ns2="http://www.dmg.org/PMML-4_3" xmlns="">DCA</input>
						<output xmlns:ns2="http://www.dmg.org/PMML-4_3" xmlns="">33</output>
					</row>
					<row>
						<input xmlns:ns2="http://www.dmg.org/PMML-4_3" xmlns="">DEN</input>
						<output xmlns:ns2="http://www.dmg.org/PMML-4_3" xmlns="">34</output>
					</row>
					<row>
						<input xmlns:ns2="http://www.dmg.org/PMML-4_3" xmlns="">DFW</input>
						<output xmlns:ns2="http://www.dmg.org/PMML-4_3" xmlns="">35</output>
					</row>
					<row>
						<input xmlns:ns2="http://www.dmg.org/PMML-4_3" xmlns="">DSM</input>
						<output xmlns:ns2="http://www.dmg.org/PMML-4_3" xmlns="">36</output>
					</row>
					<row>
						<input xmlns:ns2="http://www.dmg.org/PMML-4_3" xmlns="">DTW</input>
						<output xmlns:ns2="http://www.dmg.org/PMML-4_3" xmlns="">37</output>
					</row>
					<row>
						<input xmlns:ns2="http://www.dmg.org/PMML-4_3" xmlns="">ELM</input>
						<output xmlns:ns2="http://www.dmg.org/PMML-4_3" xmlns="">38</output>
					</row>
					<row>
						<input xmlns:ns2="http://www.dmg.org/PMML-4_3" xmlns="">ELP</input>
						<output xmlns:ns2="http://www.dmg.org/PMML-4_3" xmlns="">39</output>
					</row>
					<row>
						<input xmlns:ns2="http://www.dmg.org/PMML-4_3" xmlns="">ERI</input>
						<output xmlns:ns2="http://www.dmg.org/PMML-4_3" xmlns="">40</output>
					</row>
					<row>
						<input xmlns:ns2="http://www.dmg.org/PMML-4_3" xmlns="">EUG</input>
						<output xmlns:ns2="http://www.dmg.org/PMML-4_3" xmlns="">41</output>
					</row>
					<row>
						<input xmlns:ns2="http://www.dmg.org/PMML-4_3" xmlns="">EWR</input>
						<output xmlns:ns2="http://www.dmg.org/PMML-4_3" xmlns="">42</output>
					</row>
					<row>
						<input xmlns:ns2="http://www.dmg.org/PMML-4_3" xmlns="">EYW</input>
						<output xmlns:ns2="http://www.dmg.org/PMML-4_3" xmlns="">43</output>
					</row>
					<row>
						<input xmlns:ns2="http://www.dmg.org/PMML-4_3" xmlns="">FAT</input>
						<output xmlns:ns2="http://www.dmg.org/PMML-4_3" xmlns="">44</output>
					</row>
					<row>
						<input xmlns:ns2="http://www.dmg.org/PMML-4_3" xmlns="">FAY</input>
						<output xmlns:ns2="http://www.dmg.org/PMML-4_3" xmlns="">45</output>
					</row>
					<row>
						<input xmlns:ns2="http://www.dmg.org/PMML-4_3" xmlns="">FLL</input>
						<output xmlns:ns2="http://www.dmg.org/PMML-4_3" xmlns="">46</output>
					</row>
					<row>
						<input xmlns:ns2="http://www.dmg.org/PMML-4_3" xmlns="">FNT</input>
						<output xmlns:ns2="http://www.dmg.org/PMML-4_3" xmlns="">47</output>
					</row>
					<row>
						<input xmlns:ns2="http://www.dmg.org/PMML-4_3" xmlns="">GEG</input>
						<output xmlns:ns2="http://www.dmg.org/PMML-4_3" xmlns="">48</output>
					</row>
					<row>
						<input xmlns:ns2="http://www.dmg.org/PMML-4_3" xmlns="">GRR</input>
						<output xmlns:ns2="http://www.dmg.org/PMML-4_3" xmlns="">49</output>
					</row>
					<row>
						<input xmlns:ns2="http://www.dmg.org/PMML-4_3" xmlns="">GSO</input>
						<output xmlns:ns2="http://www.dmg.org/PMML-4_3" xmlns="">50</output>
					</row>
					<row>
						<input xmlns:ns2="http://www.dmg.org/PMML-4_3" xmlns="">GSP</input>
						<output xmlns:ns2="http://www.dmg.org/PMML-4_3" xmlns="">51</output>
					</row>
					<row>
						<input xmlns:ns2="http://www.dmg.org/PMML-4_3" xmlns="">HNL</input>
						<output xmlns:ns2="http://www.dmg.org/PMML-4_3" xmlns="">52</output>
					</row>
					<row>
						<input xmlns:ns2="http://www.dmg.org/PMML-4_3" xmlns="">HOU</input>
						<output xmlns:ns2="http://www.dmg.org/PMML-4_3" xmlns="">53</output>
					</row>
					<row>
						<input xmlns:ns2="http://www.dmg.org/PMML-4_3" xmlns="">HPN</input>
						<output xmlns:ns2="http://www.dmg.org/PMML-4_3" xmlns="">54</output>
					</row>
					<row>
						<input xmlns:ns2="http://www.dmg.org/PMML-4_3" xmlns="">HRL</input>
						<output xmlns:ns2="http://www.dmg.org/PMML-4_3" xmlns="">55</output>
					</row>
					<row>
						<input xmlns:ns2="http://www.dmg.org/PMML-4_3" xmlns="">HTS</input>
						<output xmlns:ns2="http://www.dmg.org/PMML-4_3" xmlns="">56</output>
					</row>
					<row>
						<input xmlns:ns2="http://www.dmg.org/PMML-4_3" xmlns="">IAD</input>
						<output xmlns:ns2="http://www.dmg.org/PMML-4_3" xmlns="">57</output>
					</row>
					<row>
						<input xmlns:ns2="http://www.dmg.org/PMML-4_3" xmlns="">IAH</input>
						<output xmlns:ns2="http://www.dmg.org/PMML-4_3" xmlns="">58</output>
					</row>
					<row>
						<input xmlns:ns2="http://www.dmg.org/PMML-4_3" xmlns="">ICT</input>
						<output xmlns:ns2="http://www.dmg.org/PMML-4_3" xmlns="">59</output>
					</row>
					<row>
						<input xmlns:ns2="http://www.dmg.org/PMML-4_3" xmlns="">ILM</input>
						<output xmlns:ns2="http://www.dmg.org/PMML-4_3" xmlns="">60</output>
					</row>
					<row>
						<input xmlns:ns2="http://www.dmg.org/PMML-4_3" xmlns="">IND</input>
						<output xmlns:ns2="http://www.dmg.org/PMML-4_3" xmlns="">61</output>
					</row>
					<row>
						<input xmlns:ns2="http://www.dmg.org/PMML-4_3" xmlns="">ISP</input>
						<output xmlns:ns2="http://www.dmg.org/PMML-4_3" xmlns="">62</output>
					</row>
					<row>
						<input xmlns:ns2="http://www.dmg.org/PMML-4_3" xmlns="">JAN</input>
						<output xmlns:ns2="http://www.dmg.org/PMML-4_3" xmlns="">63</output>
					</row>
					<row>
						<input xmlns:ns2="http://www.dmg.org/PMML-4_3" xmlns="">JAX</input>
						<output xmlns:ns2="http://www.dmg.org/PMML-4_3" xmlns="">64</output>
					</row>
					<row>
						<input xmlns:ns2="http://www.dmg.org/PMML-4_3" xmlns="">JFK</input>
						<output xmlns:ns2="http://www.dmg.org/PMML-4_3" xmlns="">65</output>
					</row>
					<row>
						<input xmlns:ns2="http://www.dmg.org/PMML-4_3" xmlns="">KOA</input>
						<output xmlns:ns2="http://www.dmg.org/PMML-4_3" xmlns="">66</output>
					</row>
					<row>
						<input xmlns:ns2="http://www.dmg.org/PMML-4_3" xmlns="">LAS</input>
						<output xmlns:ns2="http://www.dmg.org/PMML-4_3" xmlns="">67</output>
					</row>
					<row>
						<input xmlns:ns2="http://www.dmg.org/PMML-4_3" xmlns="">LAX</input>
						<output xmlns:ns2="http://www.dmg.org/PMML-4_3" xmlns="">68</output>
					</row>
					<row>
						<input xmlns:ns2="http://www.dmg.org/PMML-4_3" xmlns="">LBB</input>
						<output xmlns:ns2="http://www.dmg.org/PMML-4_3" xmlns="">69</output>
					</row>
					<row>
						<input xmlns:ns2="http://www.dmg.org/PMML-4_3" xmlns="">LEX</input>
						<output xmlns:ns2="http://www.dmg.org/PMML-4_3" xmlns="">70</output>
					</row>
					<row>
						<input xmlns:ns2="http://www.dmg.org/PMML-4_3" xmlns="">LGA</input>
						<output xmlns:ns2="http://www.dmg.org/PMML-4_3" xmlns="">71</output>
					</row>
					<row>
						<input xmlns:ns2="http://www.dmg.org/PMML-4_3" xmlns="">LIH</input>
						<output xmlns:ns2="http://www.dmg.org/PMML-4_3" xmlns="">72</output>
					</row>
					<row>
						<input xmlns:ns2="http://www.dmg.org/PMML-4_3" xmlns="">LIT</input>
						<output xmlns:ns2="http://www.dmg.org/PMML-4_3" xmlns="">73</output>
					</row>
					<row>
						<input xmlns:ns2="http://www.dmg.org/PMML-4_3" xmlns="">LYH</input>
						<output xmlns:ns2="http://www.dmg.org/PMML-4_3" xmlns="">74</output>
					</row>
					<row>
						<input xmlns:ns2="http://www.dmg.org/PMML-4_3" xmlns="">MAF</input>
						<output xmlns:ns2="http://www.dmg.org/PMML-4_3" xmlns="">75</output>
					</row>
					<row>
						<input xmlns:ns2="http://www.dmg.org/PMML-4_3" xmlns="">MCI</input>
						<output xmlns:ns2="http://www.dmg.org/PMML-4_3" xmlns="">76</output>
					</row>
					<row>
						<input xmlns:ns2="http://www.dmg.org/PMML-4_3" xmlns="">MCO</input>
						<output xmlns:ns2="http://www.dmg.org/PMML-4_3" xmlns="">77</output>
					</row>
					<row>
						<input xmlns:ns2="http://www.dmg.org/PMML-4_3" xmlns="">MDT</input>
						<output xmlns:ns2="http://www.dmg.org/PMML-4_3" xmlns="">78</output>
					</row>
					<row>
						<input xmlns:ns2="http://www.dmg.org/PMML-4_3" xmlns="">MDW</input>
						<output xmlns:ns2="http://www.dmg.org/PMML-4_3" xmlns="">79</output>
					</row>
					<row>
						<input xmlns:ns2="http://www.dmg.org/PMML-4_3" xmlns="">MHT</input>
						<output xmlns:ns2="http://www.dmg.org/PMML-4_3" xmlns="">80</output>
					</row>
					<row>
						<input xmlns:ns2="http://www.dmg.org/PMML-4_3" xmlns="">MIA</input>
						<output xmlns:ns2="http://www.dmg.org/PMML-4_3" xmlns="">81</output>
					</row>
					<row>
						<input xmlns:ns2="http://www.dmg.org/PMML-4_3" xmlns="">MKE</input>
						<output xmlns:ns2="http://www.dmg.org/PMML-4_3" xmlns="">82</output>
					</row>
					<row>
						<input xmlns:ns2="http://www.dmg.org/PMML-4_3" xmlns="">MRY</input>
						<output xmlns:ns2="http://www.dmg.org/PMML-4_3" xmlns="">83</output>
					</row>
					<row>
						<input xmlns:ns2="http://www.dmg.org/PMML-4_3" xmlns="">MSP</input>
						<output xmlns:ns2="http://www.dmg.org/PMML-4_3" xmlns="">84</output>
					</row>
					<row>
						<input xmlns:ns2="http://www.dmg.org/PMML-4_3" xmlns="">MSY</input>
						<output xmlns:ns2="http://www.dmg.org/PMML-4_3" xmlns="">85</output>
					</row>
					<row>
						<input xmlns:ns2="http://www.dmg.org/PMML-4_3" xmlns="">MYR</input>
						<output xmlns:ns2="http://www.dmg.org/PMML-4_3" xmlns="">86</output>
					</row>
					<row>
						<input xmlns:ns2="http://www.dmg.org/PMML-4_3" xmlns="">OAJ</input>
						<output xmlns:ns2="http://www.dmg.org/PMML-4_3" xmlns="">87</output>
					</row>
					<row>
						<input xmlns:ns2="http://www.dmg.org/PMML-4_3" xmlns="">OAK</input>
						<output xmlns:ns2="http://www.dmg.org/PMML-4_3" xmlns="">88</output>
					</row>
					<row>
						<input xmlns:ns2="http://www.dmg.org/PMML-4_3" xmlns="">OGG</input>
						<output xmlns:ns2="http://www.dmg.org/PMML-4_3" xmlns="">89</output>
					</row>
					<row>
						<input xmlns:ns2="http://www.dmg.org/PMML-4_3" xmlns="">OKC</input>
						<output xmlns:ns2="http://www.dmg.org/PMML-4_3" xmlns="">90</output>
					</row>
					<row>
						<input xmlns:ns2="http://www.dmg.org/PMML-4_3" xmlns="">OMA</input>
						<output xmlns:ns2="http://www.dmg.org/PMML-4_3" xmlns="">91</output>
					</row>
					<row>
						<input xmlns:ns2="http://www.dmg.org/PMML-4_3" xmlns="">ONT</input>
						<output xmlns:ns2="http://www.dmg.org/PMML-4_3" xmlns="">92</output>
					</row>
					<row>
						<input xmlns:ns2="http://www.dmg.org/PMML-4_3" xmlns="">ORD</input>
						<output xmlns:ns2="http://www.dmg.org/PMML-4_3" xmlns="">93</output>
					</row>
					<row>
						<input xmlns:ns2="http://www.dmg.org/PMML-4_3" xmlns="">ORF</input>
						<output xmlns:ns2="http://www.dmg.org/PMML-4_3" xmlns="">94</output>
					</row>
					<row>
						<input xmlns:ns2="http://www.dmg.org/PMML-4_3" xmlns="">ORH</input>
						<output xmlns:ns2="http://www.dmg.org/PMML-4_3" xmlns="">95</output>
					</row>
					<row>
						<input xmlns:ns2="http://www.dmg.org/PMML-4_3" xmlns="">PBI</input>
						<output xmlns:ns2="http://www.dmg.org/PMML-4_3" xmlns="">96</output>
					</row>
					<row>
						<input xmlns:ns2="http://www.dmg.org/PMML-4_3" xmlns="">PDX</input>
						<output xmlns:ns2="http://www.dmg.org/PMML-4_3" xmlns="">97</output>
					</row>
					<row>
						<input xmlns:ns2="http://www.dmg.org/PMML-4_3" xmlns="">PHF</input>
						<output xmlns:ns2="http://www.dmg.org/PMML-4_3" xmlns="">98</output>
					</row>
					<row>
						<input xmlns:ns2="http://www.dmg.org/PMML-4_3" xmlns="">PHL</input>
						<output xmlns:ns2="http://www.dmg.org/PMML-4_3" xmlns="">99</output>
					</row>
					<row>
						<input xmlns:ns2="http://www.dmg.org/PMML-4_3" xmlns="">PHX</input>
						<output xmlns:ns2="http://www.dmg.org/PMML-4_3" xmlns="">100</output>
					</row>
					<row>
						<input xmlns:ns2="http://www.dmg.org/PMML-4_3" xmlns="">PIT</input>
						<output xmlns:ns2="http://www.dmg.org/PMML-4_3" xmlns="">101</output>
					</row>
					<row>
						<input xmlns:ns2="http://www.dmg.org/PMML-4_3" xmlns="">PNS</input>
						<output xmlns:ns2="http://www.dmg.org/PMML-4_3" xmlns="">102</output>
					</row>
					<row>
						<input xmlns:ns2="http://www.dmg.org/PMML-4_3" xmlns="">PSP</input>
						<output xmlns:ns2="http://www.dmg.org/PMML-4_3" xmlns="">103</output>
					</row>
					<row>
						<input xmlns:ns2="http://www.dmg.org/PMML-4_3" xmlns="">PVD</input>
						<output xmlns:ns2="http://www.dmg.org/PMML-4_3" xmlns="">104</output>
					</row>
					<row>
						<input xmlns:ns2="http://www.dmg.org/PMML-4_3" xmlns="">PWM</input>
						<output xmlns:ns2="http://www.dmg.org/PMML-4_3" xmlns="">105</output>
					</row>
					<row>
						<input xmlns:ns2="http://www.dmg.org/PMML-4_3" xmlns="">RDU</input>
						<output xmlns:ns2="http://www.dmg.org/PMML-4_3" xmlns="">106</output>
					</row>
					<row>
						<input xmlns:ns2="http://www.dmg.org/PMML-4_3" xmlns="">RIC</input>
						<output xmlns:ns2="http://www.dmg.org/PMML-4_3" xmlns="">107</output>
					</row>
					<row>
						<input xmlns:ns2="http://www.dmg.org/PMML-4_3" xmlns="">RNO</input>
						<output xmlns:ns2="http://www.dmg.org/PMML-4_3" xmlns="">108</output>
					</row>
					<row>
						<input xmlns:ns2="http://www.dmg.org/PMML-4_3" xmlns="">ROA</input>
						<output xmlns:ns2="http://www.dmg.org/PMML-4_3" xmlns="">109</output>
					</row>
					<row>
						<input xmlns:ns2="http://www.dmg.org/PMML-4_3" xmlns="">ROC</input>
						<output xmlns:ns2="http://www.dmg.org/PMML-4_3" xmlns="">110</output>
					</row>
					<row>
						<input xmlns:ns2="http://www.dmg.org/PMML-4_3" xmlns="">RSW</input>
						<output xmlns:ns2="http://www.dmg.org/PMML-4_3" xmlns="">111</output>
					</row>
					<row>
						<input xmlns:ns2="http://www.dmg.org/PMML-4_3" xmlns="">SAN</input>
						<output xmlns:ns2="http://www.dmg.org/PMML-4_3" xmlns="">112</output>
					</row>
					<row>
						<input xmlns:ns2="http://www.dmg.org/PMML-4_3" xmlns="">SAT</input>
						<output xmlns:ns2="http://www.dmg.org/PMML-4_3" xmlns="">113</output>
					</row>
					<row>
						<input xmlns:ns2="http://www.dmg.org/PMML-4_3" xmlns="">SBN</input>
						<output xmlns:ns2="http://www.dmg.org/PMML-4_3" xmlns="">114</output>
					</row>
					<row>
						<input xmlns:ns2="http://www.dmg.org/PMML-4_3" xmlns="">SCK</input>
						<output xmlns:ns2="http://www.dmg.org/PMML-4_3" xmlns="">115</output>
					</row>
					<row>
						<input xmlns:ns2="http://www.dmg.org/PMML-4_3" xmlns="">SDF</input>
						<output xmlns:ns2="http://www.dmg.org/PMML-4_3" xmlns="">116</output>
					</row>
					<row>
						<input xmlns:ns2="http://www.dmg.org/PMML-4_3" xmlns="">SEA</input>
						<output xmlns:ns2="http://www.dmg.org/PMML-4_3" xmlns="">117</output>
					</row>
					<row>
						<input xmlns:ns2="http://www.dmg.org/PMML-4_3" xmlns="">SFO</input>
						<output xmlns:ns2="http://www.dmg.org/PMML-4_3" xmlns="">118</output>
					</row>
					<row>
						<input xmlns:ns2="http://www.dmg.org/PMML-4_3" xmlns="">SJC</input>
						<output xmlns:ns2="http://www.dmg.org/PMML-4_3" xmlns="">119</output>
					</row>
					<row>
						<input xmlns:ns2="http://www.dmg.org/PMML-4_3" xmlns="">SJU</input>
						<output xmlns:ns2="http://www.dmg.org/PMML-4_3" xmlns="">120</output>
					</row>
					<row>
						<input xmlns:ns2="http://www.dmg.org/PMML-4_3" xmlns="">SLC</input>
						<output xmlns:ns2="http://www.dmg.org/PMML-4_3" xmlns="">121</output>
					</row>
					<row>
						<input xmlns:ns2="http://www.dmg.org/PMML-4_3" xmlns="">SMF</input>
						<output xmlns:ns2="http://www.dmg.org/PMML-4_3" xmlns="">122</output>
					</row>
					<row>
						<input xmlns:ns2="http://www.dmg.org/PMML-4_3" xmlns="">SNA</input>
						<output xmlns:ns2="http://www.dmg.org/PMML-4_3" xmlns="">123</output>
					</row>
					<row>
						<input xmlns:ns2="http://www.dmg.org/PMML-4_3" xmlns="">SRQ</input>
						<output xmlns:ns2="http://www.dmg.org/PMML-4_3" xmlns="">124</output>
					</row>
					<row>
						<input xmlns:ns2="http://www.dmg.org/PMML-4_3" xmlns="">STL</input>
						<output xmlns:ns2="http://www.dmg.org/PMML-4_3" xmlns="">125</output>
					</row>
					<row>
						<input xmlns:ns2="http://www.dmg.org/PMML-4_3" xmlns="">STT</input>
						<output xmlns:ns2="http://www.dmg.org/PMML-4_3" xmlns="">126</output>
					</row>
					<row>
						<input xmlns:ns2="http://www.dmg.org/PMML-4_3" xmlns="">SWF</input>
						<output xmlns:ns2="http://www.dmg.org/PMML-4_3" xmlns="">127</output>
					</row>
					<row>
						<input xmlns:ns2="http://www.dmg.org/PMML-4_3" xmlns="">SYR</input>
						<output xmlns:ns2="http://www.dmg.org/PMML-4_3" xmlns="">128</output>
					</row>
					<row>
						<input xmlns:ns2="http://www.dmg.org/PMML-4_3" xmlns="">TOL</input>
						<output xmlns:ns2="http://www.dmg.org/PMML-4_3" xmlns="">129</output>
					</row>
					<row>
						<input xmlns:ns2="http://www.dmg.org/PMML-4_3" xmlns="">TPA</input>
						<output xmlns:ns2="http://www.dmg.org/PMML-4_3" xmlns="">130</output>
					</row>
					<row>
						<input xmlns:ns2="http://www.dmg.org/PMML-4_3" xmlns="">TUL</input>
						<output xmlns:ns2="http://www.dmg.org/PMML-4_3" xmlns="">131</output>
					</row>
					<row>
						<input xmlns:ns2="http://www.dmg.org/PMML-4_3" xmlns="">TUS</input>
						<output xmlns:ns2="http://www.dmg.org/PMML-4_3" xmlns="">132</output>
					</row>
					<row>
						<input xmlns:ns2="http://www.dmg.org/PMML-4_3" xmlns="">UCA</input>
						<output xmlns:ns2="http://www.dmg.org/PMML-4_3" xmlns="">133</output>
					</row>
				</InlineTable>
			</MapValues>
		</DerivedField>
	</TransformationDictionary>
	<MiningModel functionName="classification">
		<MiningSchema>
			<MiningField name="IsDepDelayed" usageType="target"/>
			<MiningField name="Origin"/>
			<MiningField name="Dest"/>
			<MiningField name="UniqueCarrier"/>
		</MiningSchema>
		<Segmentation multipleModelMethod="modelChain">
			<Segment id="1">
				<True/>
				<MiningModel functionName="regression">
					<MiningSchema>
						<MiningField name="Origin"/>
						<MiningField name="Dest"/>
						<MiningField name="UniqueCarrier"/>
					</MiningSchema>
					<Output>
						<OutputField name="xgbValue" optype="continuous" dataType="float" feature="predictedValue" isFinalResult="false"/>
					</Output>
					<Segmentation multipleModelMethod="sum">
						<Segment id="1">
							<True/>
							<TreeModel functionName="regression" missingValueStrategy="defaultChild" splitCharacteristic="binarySplit">
								<MiningSchema>
									<MiningField name="UniqueCarrier"/>
									<MiningField name="Origin"/>
								</MiningSchema>
								<Node id="1" defaultChild="2">
									<True/>
									<Node id="2" defaultChild="4">
										<SimplePredicate field="label_encoder(Origin)" operator="lessThan" value="53"/>
										<Node id="4" defaultChild="8">
											<SimplePredicate field="label_encoder(UniqueCarrier)" operator="lessThan" value="3"/>
											<Node id="8" score="0.14367817">
												<SimplePredicate field="label_encoder(Origin)" operator="lessThan" value="15"/>
											</Node>
											<Node id="9" score="0.04835924">
												<SimplePredicate field="label_encoder(Origin)" operator="greaterOrEqual" value="15"/>
											</Node>
										</Node>
										<Node id="5" defaultChild="10">
											<SimplePredicate field="label_encoder(UniqueCarrier)" operator="greaterOrEqual" value="3"/>
											<Node id="10" score="-0.05535484">
												<SimplePredicate field="label_encoder(UniqueCarrier)" operator="lessThan" value="4"/>
											</Node>
											<Node id="11" score="-0.011712576">
												<SimplePredicate field="label_encoder(UniqueCarrier)" operator="greaterOrEqual" value="4"/>
											</Node>
										</Node>
									</Node>
									<Node id="3" defaultChild="6">
										<SimplePredicate field="label_encoder(Origin)" operator="greaterOrEqual" value="53"/>
										<Node id="6" defaultChild="12">
											<SimplePredicate field="label_encoder(UniqueCarrier)" operator="lessThan" value="9"/>
											<Node id="12" score="-0.0041088853">
												<SimplePredicate field="label_encoder(UniqueCarrier)" operator="lessThan" value="8"/>
											</Node>
											<Node id="13" score="0.029480768">
												<SimplePredicate field="label_encoder(UniqueCarrier)" operator="greaterOrEqual" value="8"/>
											</Node>
										</Node>
										<Node id="7" defaultChild="14">
											<SimplePredicate field="label_encoder(UniqueCarrier)" operator="greaterOrEqual" value="9"/>
											<Node id="14" score="0.13402556">
												<SimplePredicate field="label_encoder(Origin)" operator="lessThan" value="118"/>
											</Node>
											<Node id="15" score="0.03409091">
												<SimplePredicate field="label_encoder(Origin)" operator="greaterOrEqual" value="118"/>
											</Node>
										</Node>
									</Node>
								</Node>
							</TreeModel>
						</Segment>
						<Segment id="2">
							<True/>
							<TreeModel functionName="regression" missingValueStrategy="defaultChild" splitCharacteristic="binarySplit">
								<MiningSchema>
									<MiningField name="UniqueCarrier"/>
									<MiningField name="Origin"/>
								</MiningSchema>
								<Node id="1" defaultChild="2">
									<True/>
									<Node id="2" defaultChild="4">
										<SimplePredicate field="label_encoder(Origin)" operator="lessThan" value="53"/>
										<Node id="4" defaultChild="8">
											<SimplePredicate field="label_encoder(UniqueCarrier)" operator="lessThan" value="3"/>
											<Node id="8" score="0.13016163">
												<SimplePredicate field="label_encoder(Origin)" operator="lessThan" value="15"/>
											</Node>
											<Node id="9" score="0.043566328">
												<SimplePredicate field="label_encoder(Origin)" operator="greaterOrEqual" value="15"/>
											</Node>
										</Node>
										<Node id="5" defaultChild="10">
											<SimplePredicate field="label_encoder(UniqueCarrier)" operator="greaterOrEqual" value="3"/>
											<Node id="10" score="-0.04986603">
												<SimplePredicate field="label_encoder(UniqueCarrier)" operator="lessThan" value="4"/>
											</Node>
											<Node id="11" score="-0.010542034">
												<SimplePredicate field="label_encoder(UniqueCarrier)" operator="greaterOrEqual" value="4"/>
											</Node>
										</Node>
									</Node>
									<Node id="3" defaultChild="6">
										<SimplePredicate field="label_encoder(Origin)" operator="greaterOrEqual" value="53"/>
										<Node id="6" defaultChild="12">
											<SimplePredicate field="label_encoder(UniqueCarrier)" operator="lessThan" value="9"/>
											<Node id="12" score="-0.0036982156">
												<SimplePredicate field="label_encoder(UniqueCarrier)" operator="lessThan" value="8"/>
											</Node>
											<Node id="13" score="0.026539749">
												<SimplePredicate field="label_encoder(UniqueCarrier)" operator="greaterOrEqual" value="8"/>
											</Node>
										</Node>
										<Node id="7" defaultChild="14">
											<SimplePredicate field="label_encoder(UniqueCarrier)" operator="greaterOrEqual" value="9"/>
											<Node id="14" score="0.121206224">
												<SimplePredicate field="label_encoder(Origin)" operator="lessThan" value="118"/>
											</Node>
											<Node id="15" score="0.03076835">
												<SimplePredicate field="label_encoder(Origin)" operator="greaterOrEqual" value="118"/>
											</Node>
										</Node>
									</Node>
								</Node>
							</TreeModel>
						</Segment>
						<Segment id="3">
							<True/>
							<TreeModel functionName="regression" missingValueStrategy="defaultChild" splitCharacteristic="binarySplit">
								<MiningSchema>
									<MiningField name="UniqueCarrier"/>
									<MiningField name="Origin"/>
									<MiningField name="Dest"/>
								</MiningSchema>
								<Node id="1" defaultChild="2">
									<True/>
									<Node id="2" defaultChild="4">
										<SimplePredicate field="label_encoder(Origin)" operator="lessThan" value="53"/>
										<Node id="4" defaultChild="8">
											<SimplePredicate field="label_encoder(UniqueCarrier)" operator="lessThan" value="3"/>
											<Node id="8" score="0.118953995">
												<SimplePredicate field="label_encoder(Origin)" operator="lessThan" value="15"/>
											</Node>
											<Node id="9" score="0.039287463">
												<SimplePredicate field="label_encoder(Origin)" operator="greaterOrEqual" value="15"/>
											</Node>
										</Node>
										<Node id="5" defaultChild="10">
											<SimplePredicate field="label_encoder(UniqueCarrier)" operator="greaterOrEqual" value="3"/>
											<Node id="10" score="-0.044980116">
												<SimplePredicate field="label_encoder(UniqueCarrier)" operator="lessThan" value="4"/>
											</Node>
											<Node id="11" score="-0.009489051">
												<SimplePredicate field="label_encoder(UniqueCarrier)" operator="greaterOrEqual" value="4"/>
											</Node>
										</Node>
									</Node>
									<Node id="3" defaultChild="6">
										<SimplePredicate field="label_encoder(Origin)" operator="greaterOrEqual" value="53"/>
										<Node id="6" defaultChild="12">
											<SimplePredicate field="label_encoder(UniqueCarrier)" operator="lessThan" value="9"/>
											<Node id="12" score="-3.4372119E-4">
												<SimplePredicate field="label_encoder(Dest)" operator="lessThan" value="95"/>
											</Node>
											<Node id="13" score="0.028289312">
												<SimplePredicate field="label_encoder(Dest)" operator="greaterOrEqual" value="95"/>
											</Node>
										</Node>
										<Node id="7" defaultChild="14">
											<SimplePredicate field="label_encoder(UniqueCarrier)" operator="greaterOrEqual" value="9"/>
											<Node id="14" score="0.11045728">
												<SimplePredicate field="label_encoder(Origin)" operator="lessThan" value="118"/>
											</Node>
											<Node id="15" score="0.02778315">
												<SimplePredicate field="label_encoder(Origin)" operator="greaterOrEqual" value="118"/>
											</Node>
										</Node>
									</Node>
								</Node>
							</TreeModel>
						</Segment>
						<Segment id="4">
							<True/>
							<TreeModel functionName="regression" missingValueStrategy="defaultChild" splitCharacteristic="binarySplit">
								<MiningSchema>
									<MiningField name="UniqueCarrier"/>
									<MiningField name="Origin"/>
								</MiningSchema>
								<Node id="1" defaultChild="2">
									<True/>
									<Node id="2" defaultChild="4">
										<SimplePredicate field="label_encoder(Origin)" operator="lessThan" value="53"/>
										<Node id="4" defaultChild="8">
											<SimplePredicate field="label_encoder(UniqueCarrier)" operator="lessThan" value="3"/>
											<Node id="8" score="0.1094085">
												<SimplePredicate field="label_encoder(Origin)" operator="lessThan" value="15"/>
											</Node>
											<Node id="9" score="0.03545363">
												<SimplePredicate field="label_encoder(Origin)" operator="greaterOrEqual" value="15"/>
											</Node>
										</Node>
										<Node id="5" defaultChild="10">
											<SimplePredicate field="label_encoder(UniqueCarrier)" operator="greaterOrEqual" value="3"/>
											<Node id="10" score="-0.04061013">
												<SimplePredicate field="label_encoder(UniqueCarrier)" operator="lessThan" value="4"/>
											</Node>
											<Node id="11" score="-0.008541576">
												<SimplePredicate field="label_encoder(UniqueCarrier)" operator="greaterOrEqual" value="4"/>
											</Node>
										</Node>
									</Node>
									<Node id="3" defaultChild="6">
										<SimplePredicate field="label_encoder(Origin)" operator="greaterOrEqual" value="53"/>
										<Node id="6" defaultChild="12">
											<SimplePredicate field="label_encoder(UniqueCarrier)" operator="lessThan" value="9"/>
											<Node id="12" score="-0.004285986">
												<SimplePredicate field="label_encoder(UniqueCarrier)" operator="lessThan" value="8"/>
											</Node>
											<Node id="13" score="0.022438513">
												<SimplePredicate field="label_encoder(UniqueCarrier)" operator="greaterOrEqual" value="8"/>
											</Node>
										</Node>
										<Node id="7" defaultChild="14">
											<SimplePredicate field="label_encoder(UniqueCarrier)" operator="greaterOrEqual" value="9"/>
											<Node id="14" score="0.10176257">
												<SimplePredicate field="label_encoder(Origin)" operator="lessThan" value="116"/>
											</Node>
											<Node id="15" score="0.031227967">
												<SimplePredicate field="label_encoder(Origin)" operator="greaterOrEqual" value="116"/>
											</Node>
										</Node>
									</Node>
								</Node>
							</TreeModel>
						</Segment>
						<Segment id="5">
							<True/>
							<TreeModel functionName="regression" missingValueStrategy="defaultChild" splitCharacteristic="binarySplit">
								<MiningSchema>
									<MiningField name="UniqueCarrier"/>
									<MiningField name="Origin"/>
									<MiningField name="Dest"/>
								</MiningSchema>
								<Node id="1" defaultChild="2">
									<True/>
									<Node id="2" defaultChild="4">
										<SimplePredicate field="label_encoder(Origin)" operator="lessThan" value="53"/>
										<Node id="4" defaultChild="8">
											<SimplePredicate field="label_encoder(UniqueCarrier)" operator="lessThan" value="3"/>
											<Node id="8" score="0.10109834">
												<SimplePredicate field="label_encoder(Origin)" operator="lessThan" value="15"/>
											</Node>
											<Node id="9" score="0.03200898">
												<SimplePredicate field="label_encoder(Origin)" operator="greaterOrEqual" value="15"/>
											</Node>
										</Node>
										<Node id="5" defaultChild="10">
											<SimplePredicate field="label_encoder(UniqueCarrier)" operator="greaterOrEqual" value="3"/>
											<Node id="10" score="-0.036687456">
												<SimplePredicate field="label_encoder(UniqueCarrier)" operator="lessThan" value="4"/>
											</Node>
											<Node id="11" score="-0.0076889037">
												<SimplePredicate field="label_encoder(UniqueCarrier)" operator="greaterOrEqual" value="4"/>
											</Node>
										</Node>
									</Node>
									<Node id="3" defaultChild="6">
										<SimplePredicate field="label_encoder(Origin)" operator="greaterOrEqual" value="53"/>
										<Node id="6" defaultChild="12">
											<SimplePredicate field="label_encoder(UniqueCarrier)" operator="lessThan" value="9"/>
											<Node id="12" score="-0.0012304797">
												<SimplePredicate field="label_encoder(Dest)" operator="lessThan" value="95"/>
											</Node>
											<Node id="13" score="0.024105063">
												<SimplePredicate field="label_encoder(Dest)" operator="greaterOrEqual" value="95"/>
											</Node>
										</Node>
										<Node id="7" defaultChild="14">
											<SimplePredicate field="label_encoder(UniqueCarrier)" operator="greaterOrEqual" value="9"/>
											<Node id="14" score="0.09316393">
												<SimplePredicate field="label_encoder(Origin)" operator="lessThan" value="118"/>
											</Node>
											<Node id="15" score="0.022083418">
												<SimplePredicate field="label_encoder(Origin)" operator="greaterOrEqual" value="118"/>
											</Node>
										</Node>
									</Node>
								</Node>
							</TreeModel>
						</Segment>
						<Segment id="6">
							<True/>
							<TreeModel functionName="regression" missingValueStrategy="defaultChild" splitCharacteristic="binarySplit">
								<MiningSchema>
									<MiningField name="UniqueCarrier"/>
									<MiningField name="Origin"/>
								</MiningSchema>
								<Node id="1" defaultChild="2">
									<True/>
									<Node id="2" defaultChild="4">
										<SimplePredicate field="label_encoder(Origin)" operator="lessThan" value="53"/>
										<Node id="4" defaultChild="8">
											<SimplePredicate field="label_encoder(UniqueCarrier)" operator="lessThan" value="3"/>
											<Node id="8" score="0.0937315">
												<SimplePredicate field="label_encoder(Origin)" operator="lessThan" value="15"/>
											</Node>
											<Node id="9" score="0.028907582">
												<SimplePredicate field="label_encoder(Origin)" operator="greaterOrEqual" value="15"/>
											</Node>
										</Node>
										<Node id="5" defaultChild="10">
											<SimplePredicate field="label_encoder(UniqueCarrier)" operator="greaterOrEqual" value="3"/>
											<Node id="10" score="-0.025783075">
												<SimplePredicate field="label_encoder(Origin)" operator="lessThan" value="19"/>
											</Node>
											<Node id="11" score="-0.004121787">
												<SimplePredicate field="label_encoder(Origin)" operator="greaterOrEqual" value="19"/>
											</Node>
										</Node>
									</Node>
									<Node id="3" defaultChild="6">
										<SimplePredicate field="label_encoder(Origin)" operator="greaterOrEqual" value="53"/>
										<Node id="6" defaultChild="12">
											<SimplePredicate field="label_encoder(UniqueCarrier)" operator="lessThan" value="9"/>
											<Node id="12" score="-0.0046124174">
												<SimplePredicate field="label_encoder(UniqueCarrier)" operator="lessThan" value="8"/>
											</Node>
											<Node id="13" score="0.019018328">
												<SimplePredicate field="label_encoder(UniqueCarrier)" operator="greaterOrEqual" value="8"/>
											</Node>
										</Node>
										<Node id="7" defaultChild="14">
											<SimplePredicate field="label_encoder(UniqueCarrier)" operator="greaterOrEqual" value="9"/>
											<Node id="14" score="0.08643972">
												<SimplePredicate field="label_encoder(Origin)" operator="lessThan" value="116"/>
											</Node>
											<Node id="15" score="0.025050992">
												<SimplePredicate field="label_encoder(Origin)" operator="greaterOrEqual" value="116"/>
											</Node>
										</Node>
									</Node>
								</Node>
							</TreeModel>
						</Segment>
						<Segment id="7">
							<True/>
							<TreeModel functionName="regression" missingValueStrategy="defaultChild" splitCharacteristic="binarySplit">
								<MiningSchema>
									<MiningField name="UniqueCarrier"/>
									<MiningField name="Origin"/>
									<MiningField name="Dest"/>
								</MiningSchema>
								<Node id="1" defaultChild="2">
									<True/>
									<Node id="2" defaultChild="4">
										<SimplePredicate field="label_encoder(UniqueCarrier)" operator="lessThan" value="9"/>
										<Node id="4" defaultChild="8">
											<SimplePredicate field="label_encoder(Dest)" operator="lessThan" value="36"/>
											<Node id="8" score="0.0071807452">
												<SimplePredicate field="label_encoder(Dest)" operator="lessThan" value="25"/>
											</Node>
											<Node id="9" score="-0.044543732">
												<SimplePredicate field="label_encoder(Dest)" operator="greaterOrEqual" value="25"/>
											</Node>
										</Node>
										<Node id="5" defaultChild="10">
											<SimplePredicate field="label_encoder(Dest)" operator="greaterOrEqual" value="36"/>
											<Node id="10" score="-0.0026556894">
												<SimplePredicate field="label_encoder(UniqueCarrier)" operator="lessThan" value="8"/>
											</Node>
											<Node id="11" score="0.018819753">
												<SimplePredicate field="label_encoder(UniqueCarrier)" operator="greaterOrEqual" value="8"/>
											</Node>
										</Node>
									</Node>
									<Node id="3" defaultChild="6">
										<SimplePredicate field="label_encoder(UniqueCarrier)" operator="greaterOrEqual" value="9"/>
										<Node id="6" defaultChild="12">
											<SimplePredicate field="label_encoder(Origin)" operator="lessThan" value="19"/>
											<Node id="12" score="0.07634115">
												<SimplePredicate field="label_encoder(Dest)" operator="lessThan" value="100"/>
											</Node>
											<Node id="13" score="-0.03123178">
												<SimplePredicate field="label_encoder(Dest)" operator="greaterOrEqual" value="100"/>
											</Node>
										</Node>
										<Node id="7" defaultChild="14">
											<SimplePredicate field="label_encoder(Origin)" operator="greaterOrEqual" value="19"/>
											<Node id="14" score="0.07682611">
												<SimplePredicate field="label_encoder(Origin)" operator="lessThan" value="118"/>
											</Node>
											<Node id="15" score="0.01754443">
												<SimplePredicate field="label_encoder(Origin)" operator="greaterOrEqual" value="118"/>
											</Node>
										</Node>
									</Node>
								</Node>
							</TreeModel>
						</Segment>
						<Segment id="8">
							<True/>
							<TreeModel functionName="regression" missingValueStrategy="defaultChild" splitCharacteristic="binarySplit">
								<MiningSchema>
									<MiningField name="UniqueCarrier"/>
									<MiningField name="Origin"/>
									<MiningField name="Dest"/>
								</MiningSchema>
								<Node id="1" defaultChild="2">
									<True/>
									<Node id="2" defaultChild="4">
										<SimplePredicate field="label_encoder(Origin)" operator="lessThan" value="53"/>
										<Node id="4" defaultChild="8">
											<SimplePredicate field="label_encoder(UniqueCarrier)" operator="lessThan" value="3"/>
											<Node id="8" score="0.08728847">
												<SimplePredicate field="label_encoder(Origin)" operator="lessThan" value="15"/>
											</Node>
											<Node id="9" score="0.026367778">
												<SimplePredicate field="label_encoder(Origin)" operator="greaterOrEqual" value="15"/>
											</Node>
										</Node>
										<Node id="5" defaultChild="10">
											<SimplePredicate field="label_encoder(UniqueCarrier)" operator="greaterOrEqual" value="3"/>
											<Node id="10" score="-0.03160355">
												<SimplePredicate field="label_encoder(UniqueCarrier)" operator="lessThan" value="4"/>
											</Node>
											<Node id="11" score="-0.0058314377">
												<SimplePredicate field="label_encoder(UniqueCarrier)" operator="greaterOrEqual" value="4"/>
											</Node>
										</Node>
									</Node>
									<Node id="3" defaultChild="6">
										<SimplePredicate field="label_encoder(Origin)" operator="greaterOrEqual" value="53"/>
										<Node id="6" defaultChild="12">
											<SimplePredicate field="label_encoder(UniqueCarrier)" operator="lessThan" value="9"/>
											<Node id="12" score="-0.0013288559">
												<SimplePredicate field="label_encoder(Dest)" operator="lessThan" value="95"/>
											</Node>
											<Node id="13" score="0.01941396">
												<SimplePredicate field="label_encoder(Dest)" operator="greaterOrEqual" value="95"/>
											</Node>
										</Node>
										<Node id="7" defaultChild="14">
											<SimplePredicate field="label_encoder(UniqueCarrier)" operator="greaterOrEqual" value="9"/>
											<Node id="14" score="0.050930776">
												<SimplePredicate field="label_encoder(Origin)" operator="lessThan" value="73"/>
											</Node>
											<Node id="15" score="0.083897196">
												<SimplePredicate field="label_encoder(Origin)" operator="greaterOrEqual" value="73"/>
											</Node>
										</Node>
									</Node>
								</Node>
							</TreeModel>
						</Segment>
						<Segment id="9">
							<True/>
							<TreeModel functionName="regression" missingValueStrategy="defaultChild" splitCharacteristic="binarySplit">
								<MiningSchema>
									<MiningField name="UniqueCarrier"/>
									<MiningField name="Origin"/>
								</MiningSchema>
								<Node id="1" defaultChild="2">
									<True/>
									<Node id="2" defaultChild="4">
										<SimplePredicate field="label_encoder(Origin)" operator="lessThan" value="53"/>
										<Node id="4" defaultChild="8">
											<SimplePredicate field="label_encoder(UniqueCarrier)" operator="lessThan" value="3"/>
											<Node id="8" score="0.08123503">
												<SimplePredicate field="label_encoder(Origin)" operator="lessThan" value="15"/>
											</Node>
											<Node id="9" score="0.023818294">
												<SimplePredicate field="label_encoder(Origin)" operator="greaterOrEqual" value="15"/>
											</Node>
										</Node>
										<Node id="5" defaultChild="10">
											<SimplePredicate field="label_encoder(UniqueCarrier)" operator="greaterOrEqual" value="3"/>
											<Node id="10" score="-0.008073313">
												<SimplePredicate field="label_encoder(Origin)" operator="lessThan" value="50"/>
											</Node>
											<Node id="11" score="-0.06635472">
												<SimplePredicate field="label_encoder(Origin)" operator="greaterOrEqual" value="50"/>
											</Node>
										</Node>
									</Node>
									<Node id="3" defaultChild="6">
										<SimplePredicate field="label_encoder(Origin)" operator="greaterOrEqual" value="53"/>
										<Node id="6" defaultChild="12">
											<SimplePredicate field="label_encoder(UniqueCarrier)" operator="lessThan" value="9"/>
											<Node id="12" score="-0.0040225205">
												<SimplePredicate field="label_encoder(UniqueCarrier)" operator="lessThan" value="8"/>
											</Node>
											<Node id="13" score="0.015253658">
												<SimplePredicate field="label_encoder(UniqueCarrier)" operator="greaterOrEqual" value="8"/>
											</Node>
										</Node>
										<Node id="7" defaultChild="14">
											<SimplePredicate field="label_encoder(UniqueCarrier)" operator="greaterOrEqual" value="9"/>
											<Node id="14" score="0.06915915">
												<SimplePredicate field="label_encoder(Origin)" operator="lessThan" value="116"/>
											</Node>
											<Node id="15" score="0.012067">
												<SimplePredicate field="label_encoder(Origin)" operator="greaterOrEqual" value="116"/>
											</Node>
										</Node>
									</Node>
								</Node>
							</TreeModel>
						</Segment>
						<Segment id="10">
							<True/>
							<TreeModel functionName="regression" missingValueStrategy="defaultChild" splitCharacteristic="binarySplit">
								<MiningSchema>
									<MiningField name="UniqueCarrier"/>
									<MiningField name="Origin"/>
									<MiningField name="Dest"/>
								</MiningSchema>
								<Node id="1" defaultChild="2">
									<True/>
									<Node id="2" defaultChild="4">
										<SimplePredicate field="label_encoder(UniqueCarrier)" operator="lessThan" value="9"/>
										<Node id="4" defaultChild="8">
											<SimplePredicate field="label_encoder(Dest)" operator="lessThan" value="94"/>
											<Node id="8" score="0.05866125">
												<SimplePredicate field="label_encoder(UniqueCarrier)" operator="lessThan" value="5"/>
											</Node>
											<Node id="9" score="-0.012513268">
												<SimplePredicate field="label_encoder(UniqueCarrier)" operator="greaterOrEqual" value="5"/>
											</Node>
										</Node>
										<Node id="5" defaultChild="10">
											<SimplePredicate field="label_encoder(Dest)" operator="greaterOrEqual" value="94"/>
											<Node id="10" score="-0.010989065">
												<SimplePredicate field="label_encoder(UniqueCarrier)" operator="lessThan" value="4"/>
											</Node>
											<Node id="11" score="0.018660443">
												<SimplePredicate field="label_encoder(UniqueCarrier)" operator="greaterOrEqual" value="4"/>
											</Node>
										</Node>
									</Node>
									<Node id="3" defaultChild="6">
										<SimplePredicate field="label_encoder(UniqueCarrier)" operator="greaterOrEqual" value="9"/>
										<Node id="6" defaultChild="12">
											<SimplePredicate field="label_encoder(Origin)" operator="lessThan" value="19"/>
											<Node id="12" score="0.07011012">
												<SimplePredicate field="label_encoder(Dest)" operator="lessThan" value="100"/>
											</Node>
											<Node id="13" score="-0.026789758">
												<SimplePredicate field="label_encoder(Dest)" operator="greaterOrEqual" value="100"/>
											</Node>
										</Node>
										<Node id="7" defaultChild="14">
											<SimplePredicate field="label_encoder(Origin)" operator="greaterOrEqual" value="19"/>
											<Node id="14" score="0.06347694">
												<SimplePredicate field="label_encoder(Origin)" operator="lessThan" value="117"/>
											</Node>
											<Node id="15" score="0.010425469">
												<SimplePredicate field="label_encoder(Origin)" operator="greaterOrEqual" value="117"/>
											</Node>
										</Node>
									</Node>
								</Node>
							</TreeModel>
						</Segment>
						<Segment id="11">
							<True/>
							<TreeModel functionName="regression" missingValueStrategy="defaultChild" splitCharacteristic="binarySplit">
								<MiningSchema>
									<MiningField name="UniqueCarrier"/>
									<MiningField name="Origin"/>
									<MiningField name="Dest"/>
								</MiningSchema>
								<Node id="1" defaultChild="2">
									<True/>
									<Node id="2" defaultChild="4">
										<SimplePredicate field="label_encoder(UniqueCarrier)" operator="lessThan" value="8"/>
										<Node id="4" defaultChild="8">
											<SimplePredicate field="label_encoder(UniqueCarrier)" operator="lessThan" value="7"/>
											<Node id="8" score="-0.009895115">
												<SimplePredicate field="label_encoder(UniqueCarrier)" operator="lessThan" value="4"/>
											</Node>
											<Node id="9" score="0.024767032">
												<SimplePredicate field="label_encoder(UniqueCarrier)" operator="greaterOrEqual" value="4"/>
											</Node>
										</Node>
										<Node id="5" defaultChild="10">
											<SimplePredicate field="label_encoder(UniqueCarrier)" operator="greaterOrEqual" value="7"/>
											<Node id="10" score="-0.032537445">
												<SimplePredicate field="label_encoder(Dest)" operator="lessThan" value="97"/>
											</Node>
											<Node id="11" score="0.013184451">
												<SimplePredicate field="label_encoder(Dest)" operator="greaterOrEqual" value="97"/>
											</Node>
										</Node>
									</Node>
									<Node id="3" defaultChild="6">
										<SimplePredicate field="label_encoder(UniqueCarrier)" operator="greaterOrEqual" value="8"/>
										<Node id="6" defaultChild="12">
											<SimplePredicate field="label_encoder(Origin)" operator="lessThan" value="30"/>
											<Node id="12" score="-0.012129766">
												<SimplePredicate field="label_encoder(Dest)" operator="lessThan" value="111"/>
											</Node>
											<Node id="13" score="0.059324976">
												<SimplePredicate field="label_encoder(Dest)" operator="greaterOrEqual" value="111"/>
											</Node>
										</Node>
										<Node id="7" defaultChild="14">
											<SimplePredicate field="label_encoder(Origin)" operator="greaterOrEqual" value="30"/>
											<Node id="14" score="0.011730322">
												<SimplePredicate field="label_encoder(UniqueCarrier)" operator="lessThan" value="9"/>
											</Node>
											<Node id="15" score="0.05593151">
												<SimplePredicate field="label_encoder(UniqueCarrier)" operator="greaterOrEqual" value="9"/>
											</Node>
										</Node>
									</Node>
								</Node>
							</TreeModel>
						</Segment>
						<Segment id="12">
							<True/>
							<TreeModel functionName="regression" missingValueStrategy="defaultChild" splitCharacteristic="binarySplit">
								<MiningSchema>
									<MiningField name="UniqueCarrier"/>
									<MiningField name="Origin"/>
									<MiningField name="Dest"/>
								</MiningSchema>
								<Node id="1" defaultChild="2">
									<True/>
									<Node id="2" defaultChild="4">
										<SimplePredicate field="label_encoder(Origin)" operator="lessThan" value="19"/>
										<Node id="4" score="0.07709518">
											<SimplePredicate field="label_encoder(UniqueCarrier)" operator="lessThan" value="3"/>
										</Node>
										<Node id="5" defaultChild="8">
											<SimplePredicate field="label_encoder(UniqueCarrier)" operator="greaterOrEqual" value="3"/>
											<Node id="8" score="0.09190432">
												<SimplePredicate field="label_encoder(Dest)" operator="lessThan" value="23"/>
											</Node>
											<Node id="9" score="-0.020839648">
												<SimplePredicate field="label_encoder(Dest)" operator="greaterOrEqual" value="23"/>
											</Node>
										</Node>
									</Node>
									<Node id="3" defaultChild="6">
										<SimplePredicate field="label_encoder(Origin)" operator="greaterOrEqual" value="19"/>
										<Node id="6" defaultChild="10">
											<SimplePredicate field="label_encoder(UniqueCarrier)" operator="lessThan" value="9"/>
											<Node id="10" score="-0.008094264">
												<SimplePredicate field="label_encoder(Dest)" operator="lessThan" value="95"/>
											</Node>
											<Node id="11" score="0.013257151">
												<SimplePredicate field="label_encoder(Dest)" operator="greaterOrEqual" value="95"/>
											</Node>
										</Node>
										<Node id="7" defaultChild="12">
											<SimplePredicate field="label_encoder(UniqueCarrier)" operator="greaterOrEqual" value="9"/>
											<Node id="12" score="0.05454108">
												<SimplePredicate field="label_encoder(Origin)" operator="lessThan" value="116"/>
											</Node>
											<Node id="13" score="0.0044052685">
												<SimplePredicate field="label_encoder(Origin)" operator="greaterOrEqual" value="116"/>
											</Node>
										</Node>
									</Node>
								</Node>
							</TreeModel>
						</Segment>
						<Segment id="13">
							<True/>
							<TreeModel functionName="regression" missingValueStrategy="defaultChild" splitCharacteristic="binarySplit">
								<MiningSchema>
									<MiningField name="UniqueCarrier"/>
									<MiningField name="Origin"/>
									<MiningField name="Dest"/>
								</MiningSchema>
								<Node id="1" defaultChild="2">
									<True/>
									<Node id="2" defaultChild="4">
										<SimplePredicate field="label_encoder(UniqueCarrier)" operator="lessThan" value="8"/>
										<Node id="4" defaultChild="8">
											<SimplePredicate field="label_encoder(UniqueCarrier)" operator="lessThan" value="7"/>
											<Node id="8" score="-0.0096899355">
												<SimplePredicate field="label_encoder(UniqueCarrier)" operator="lessThan" value="4"/>
											</Node>
											<Node id="9" score="0.022443352">
												<SimplePredicate field="label_encoder(UniqueCarrier)" operator="greaterOrEqual" value="4"/>
											</Node>
										</Node>
										<Node id="5" defaultChild="10">
											<SimplePredicate field="label_encoder(UniqueCarrier)" operator="greaterOrEqual" value="7"/>
											<Node id="10" score="-0.02784873">
												<SimplePredicate field="label_encoder(Dest)" operator="lessThan" value="99"/>
											</Node>
											<Node id="11" score="0.012290104">
												<SimplePredicate field="label_encoder(Dest)" operator="greaterOrEqual" value="99"/>
											</Node>
										</Node>
									</Node>
									<Node id="3" defaultChild="6">
										<SimplePredicate field="label_encoder(UniqueCarrier)" operator="greaterOrEqual" value="8"/>
										<Node id="6" defaultChild="12">
											<SimplePredicate field="label_encoder(Origin)" operator="lessThan" value="30"/>
											<Node id="12" score="-0.010322261">
												<SimplePredicate field="label_encoder(Dest)" operator="lessThan" value="110"/>
											</Node>
											<Node id="13" score="0.04953074">
												<SimplePredicate field="label_encoder(Dest)" operator="greaterOrEqual" value="110"/>
											</Node>
										</Node>
										<Node id="7" defaultChild="14">
											<SimplePredicate field="label_encoder(Origin)" operator="greaterOrEqual" value="30"/>
											<Node id="14" score="0.0102692">
												<SimplePredicate field="label_encoder(UniqueCarrier)" operator="lessThan" value="9"/>
											</Node>
											<Node id="15" score="0.047374915">
												<SimplePredicate field="label_encoder(UniqueCarrier)" operator="greaterOrEqual" value="9"/>
											</Node>
										</Node>
									</Node>
								</Node>
							</TreeModel>
						</Segment>
						<Segment id="14">
							<True/>
							<TreeModel functionName="regression" missingValueStrategy="defaultChild" splitCharacteristic="binarySplit">
								<MiningSchema>
									<MiningField name="UniqueCarrier"/>
									<MiningField name="Origin"/>
									<MiningField name="Dest"/>
								</MiningSchema>
								<Node id="1" defaultChild="2">
									<True/>
									<Node id="2" defaultChild="4">
										<SimplePredicate field="label_encoder(Dest)" operator="lessThan" value="36"/>
										<Node id="4" defaultChild="8">
											<SimplePredicate field="label_encoder(Dest)" operator="lessThan" value="25"/>
											<Node id="8" score="0.08242782">
												<SimplePredicate field="label_encoder(Origin)" operator="lessThan" value="22"/>
											</Node>
											<Node id="9" score="0.009025096">
												<SimplePredicate field="label_encoder(Origin)" operator="greaterOrEqual" value="22"/>
											</Node>
										</Node>
										<Node id="5" defaultChild="10">
											<SimplePredicate field="label_encoder(Dest)" operator="greaterOrEqual" value="25"/>
											<Node id="10" score="-0.047290977">
												<SimplePredicate field="label_encoder(Origin)" operator="lessThan" value="88"/>
											</Node>
											<Node id="11" score="-0.00877892">
												<SimplePredicate field="label_encoder(Origin)" operator="greaterOrEqual" value="88"/>
											</Node>
										</Node>
									</Node>
									<Node id="3" defaultChild="6">
										<SimplePredicate field="label_encoder(Dest)" operator="greaterOrEqual" value="36"/>
										<Node id="6" defaultChild="12">
											<SimplePredicate field="label_encoder(Origin)" operator="lessThan" value="19"/>
											<Node id="12" score="0.072494626">
												<SimplePredicate field="label_encoder(UniqueCarrier)" operator="lessThan" value="3"/>
											</Node>
											<Node id="13" score="-0.016818544">
												<SimplePredicate field="label_encoder(UniqueCarrier)" operator="greaterOrEqual" value="3"/>
											</Node>
										</Node>
										<Node id="7" defaultChild="14">
											<SimplePredicate field="label_encoder(Origin)" operator="greaterOrEqual" value="19"/>
											<Node id="14" score="0.0074666464">
												<SimplePredicate field="label_encoder(UniqueCarrier)" operator="lessThan" value="9"/>
											</Node>
											<Node id="15" score="0.0429701">
												<SimplePredicate field="label_encoder(UniqueCarrier)" operator="greaterOrEqual" value="9"/>
											</Node>
										</Node>
									</Node>
								</Node>
							</TreeModel>
						</Segment>
						<Segment id="15">
							<True/>
							<TreeModel functionName="regression" missingValueStrategy="defaultChild" splitCharacteristic="binarySplit">
								<MiningSchema>
									<MiningField name="UniqueCarrier"/>
									<MiningField name="Origin"/>
									<MiningField name="Dest"/>
								</MiningSchema>
								<Node id="1" defaultChild="2">
									<True/>
									<Node id="2" defaultChild="4">
										<SimplePredicate field="label_encoder(UniqueCarrier)" operator="lessThan" value="8"/>
										<Node id="4" defaultChild="8">
											<SimplePredicate field="label_encoder(UniqueCarrier)" operator="lessThan" value="7"/>
											<Node id="8" score="-0.0092008365">
												<SimplePredicate field="label_encoder(UniqueCarrier)" operator="lessThan" value="4"/>
											</Node>
											<Node id="9" score="0.01962254">
												<SimplePredicate field="label_encoder(UniqueCarrier)" operator="greaterOrEqual" value="4"/>
											</Node>
										</Node>
										<Node id="5" defaultChild="10">
											<SimplePredicate field="label_encoder(UniqueCarrier)" operator="greaterOrEqual" value="7"/>
											<Node id="10" score="-0.024795592">
												<SimplePredicate field="label_encoder(Dest)" operator="lessThan" value="99"/>
											</Node>
											<Node id="11" score="0.010344288">
												<SimplePredicate field="label_encoder(Dest)" operator="greaterOrEqual" value="99"/>
											</Node>
										</Node>
									</Node>
									<Node id="3" defaultChild="6">
										<SimplePredicate field="label_encoder(UniqueCarrier)" operator="greaterOrEqual" value="8"/>
										<Node id="6" defaultChild="12">
											<SimplePredicate field="label_encoder(Dest)" operator="lessThan" value="27"/>
											<Node id="12" score="0.01775093">
												<SimplePredicate field="label_encoder(Dest)" operator="lessThan" value="25"/>
											</Node>
											<Node id="13" score="-0.054683924">
												<SimplePredicate field="label_encoder(Dest)" operator="greaterOrEqual" value="25"/>
											</Node>
										</Node>
										<Node id="7" defaultChild="14">
											<SimplePredicate field="label_encoder(Dest)" operator="greaterOrEqual" value="27"/>
											<Node id="14" score="-0.00218016">
												<SimplePredicate field="label_encoder(Origin)" operator="lessThan" value="29"/>
											</Node>
											<Node id="15" score="0.019650668">
												<SimplePredicate field="label_encoder(Origin)" operator="greaterOrEqual" value="29"/>
											</Node>
										</Node>
									</Node>
								</Node>
							</TreeModel>
						</Segment>
						<Segment id="16">
							<True/>
							<TreeModel functionName="regression" missingValueStrategy="defaultChild" splitCharacteristic="binarySplit">
								<MiningSchema>
									<MiningField name="UniqueCarrier"/>
									<MiningField name="Origin"/>
									<MiningField name="Dest"/>
								</MiningSchema>
								<Node id="1" defaultChild="2">
									<True/>
									<Node id="2" defaultChild="4">
										<SimplePredicate field="label_encoder(UniqueCarrier)" operator="lessThan" value="8"/>
										<Node id="4" score="0.10626038">
											<SimplePredicate field="label_encoder(Dest)" operator="lessThan" value="4"/>
										</Node>
										<Node id="5" defaultChild="8">
											<SimplePredicate field="label_encoder(Dest)" operator="greaterOrEqual" value="4"/>
											<Node id="8" score="0.020416845">
												<SimplePredicate field="label_encoder(UniqueCarrier)" operator="lessThan" value="3"/>
											</Node>
											<Node id="9" score="-0.007835049">
												<SimplePredicate field="label_encoder(UniqueCarrier)" operator="greaterOrEqual" value="3"/>
											</Node>
										</Node>
									</Node>
									<Node id="3" defaultChild="6">
										<SimplePredicate field="label_encoder(UniqueCarrier)" operator="greaterOrEqual" value="8"/>
										<Node id="6" defaultChild="10">
											<SimplePredicate field="label_encoder(Dest)" operator="lessThan" value="110"/>
											<Node id="10" score="-0.008151431">
												<SimplePredicate field="label_encoder(Origin)" operator="lessThan" value="29"/>
											</Node>
											<Node id="11" score="0.010085992">
												<SimplePredicate field="label_encoder(Origin)" operator="greaterOrEqual" value="29"/>
											</Node>
										</Node>
										<Node id="7" defaultChild="12">
											<SimplePredicate field="label_encoder(Dest)" operator="greaterOrEqual" value="110"/>
											<Node id="12" score="0.041045092">
												<SimplePredicate field="label_encoder(Origin)" operator="lessThan" value="116"/>
											</Node>
											<Node id="13" score="-0.07899375">
												<SimplePredicate field="label_encoder(Origin)" operator="greaterOrEqual" value="116"/>
											</Node>
										</Node>
									</Node>
								</Node>
							</TreeModel>
						</Segment>
						<Segment id="17">
							<True/>
							<TreeModel functionName="regression" missingValueStrategy="defaultChild" splitCharacteristic="binarySplit">
								<MiningSchema>
									<MiningField name="Origin"/>
									<MiningField name="Dest"/>
								</MiningSchema>
								<Node id="1" defaultChild="2">
									<True/>
									<Node id="2" defaultChild="4">
										<SimplePredicate field="label_encoder(Dest)" operator="lessThan" value="36"/>
										<Node id="4" defaultChild="8">
											<SimplePredicate field="label_encoder(Dest)" operator="lessThan" value="25"/>
											<Node id="8" score="0.0016410375">
												<SimplePredicate field="label_encoder(Dest)" operator="lessThan" value="19"/>
											</Node>
											<Node id="9" score="0.04098099">
												<SimplePredicate field="label_encoder(Dest)" operator="greaterOrEqual" value="19"/>
											</Node>
										</Node>
										<Node id="5" defaultChild="10">
											<SimplePredicate field="label_encoder(Dest)" operator="greaterOrEqual" value="25"/>
											<Node id="10" score="-0.039955307">
												<SimplePredicate field="label_encoder(Origin)" operator="lessThan" value="87"/>
											</Node>
											<Node id="11" score="-0.006339272">
												<SimplePredicate field="label_encoder(Origin)" operator="greaterOrEqual" value="87"/>
